<?xml version="1.0"?>
<opencv_storage>
<stage11>
  <maxWeakCount>18</maxWeakCount>
  <stageThreshold>-1.5332001447677612e+00</stageThreshold>
  <weakClassifiers>
    <_>
      <internalNodes>
        0 -1 2250 -144703745 -1094715453 -36710145 -1375736581
        2131360765 -1209305681 -50897411 -8388610</internalNodes>
      <leafValues>
        -6.5043157339096069e-01 -1.2079207599163055e-01</leafValues></_>
    <_>
      <internalNodes>
        0 -1 29 1627384744 946531254 800811002 1039570934 1608282026
        2129969137 -67683232 -1999336910</internalNodes>
      <leafValues>
        -4.7540289163589478e-01 7.8349918127059937e-02</leafValues></_>
    <_>
      <internalNodes>
        0 -1 1754 662645887 -352425029 -285212700 -1342313217
        -1086378121 -1913651977 -893914250 -34099659</internalNodes>
      <leafValues>
        -2.5507405400276184e-01 2.5239077210426331e-01</leafValues></_>
    <_>
      <internalNodes>
        0 -1 37 1328624951 1985177407 -823183363 1886709087 2079071093
        -605455177 -303350700 -1631821872</internalNodes>
      <leafValues>
        -3.0645751953125000e-01 2.0169211924076080e-01</leafValues></_>
    <_>
      <internalNodes>
        0 -1 923 -1031135232 539380386 -2105346 1218625086 1780298036
        -1375764655 1574729268 1079261700</internalNodes>
      <leafValues>
        -6.6768938302993774e-01 1.3185448944568634e-01</leafValues></_>
    <_>
      <internalNodes>
        0 -1 2410 1782484782 654751282 -167896642 819184319 -206353672
        1596969246 -809322677 4047175</internalNodes>
      <leafValues>
        -3.2856160402297974e-01 1.7008247971534729e-01</leafValues></_>
    <_>
      <internalNodes>
        0 -1 610 572632828 1490896701 -977989523 1761353707 425860527
        1261767502 353789662 -788329915</internalNodes>
      <leafValues>
        -2.9726099967956543e-01 1.9165253639221191e-01</leafValues></_>
    <_>
      <internalNodes>
        0 -1 3534 -1505772569 -1431323708 1969983234 1619841934
        765194957 15557305 -1732508592 28628532</internalNodes>
      <leafValues>
        -4.1048440337181091e-01 1.4553149044513702e-01</leafValues></_>
    <_>
      <internalNodes>
        0 -1 34 242148384 -1561808904 -818532748 -1431181127 -226728684
        1475637616 1961496850 677405748</internalNodes>
      <leafValues>
        -6.2402534484863281e-01 8.7071537971496582e-02</leafValues></_>
    <_>
      <internalNodes>
        0 -1 366 824314169 1719450533 -1162101765 1837103865 -1352452286
        1088915183 1001842005 -1791482500</internalNodes>
      <leafValues>
        -3.2230544090270996e-01 1.7928926646709442e-01</leafValues></_>
    <_>
      <internalNodes>
        0 -1 622 173715456 -1714777643 -1625323659 855297760 -2054709066
        619821927 -1652318427 1618717521</internalNodes>
      <leafValues>
        -3.9766600728034973e-01 1.4556060731410980e-01</leafValues></_>
    <_>
      <internalNodes>
        0 -1 2126 1667663418 667912730 -95694530 864731701 516236283
        -1421900292 1976106772 1260744203</internalNodes>
      <leafValues>
        -3.3757662773132324e-01 1.7844475805759430e-01</leafValues></_>
    <_>
      <internalNodes>
        0 -1 913 1624761844 223697278 349697793 1860563182 1917295122
        -1421197095 3079932 909150790</internalNodes>
      <leafValues>
        -3.3685874938964844e-01 1.7673818767070770e-01</leafValues></_>
    <_>
      <internalNodes>
        0 -1 3048 -1900471701 -422576133 1565748051 -1029777293
        -1573016749 550629753 127872372 -1843607836</internalNodes>
      <leafValues>
        -3.4983596205711365e-01 1.7397142946720123e-01</leafValues></_>
    <_>
      <internalNodes>
        0 -1 3766 742723072 754955256 -418139167 -1967325490 438781812
        393995898 1323350625 271588408</internalNodes>
      <leafValues>
        -5.6989139318466187e-01 1.0365423560142517e-01</leafValues></_>
    <_>
      <internalNodes>
        0 -1 1154 786165666 1698817023 -1123158226 187541439 1996255476
        1528547587 -289788585 747389215</internalNodes>
      <leafValues>
        -3.3928146958351135e-01 1.6536061465740204e-01</leafValues></_>
    <_>
      <internalNodes>
        0 -1 2812 -1681556752 -842435011 -1456243507 -1946669580
        960050889 -974591589 2146328173 1651164222</internalNodes>
      <leafValues>
        -2.8910580277442932e-01 1.9970883429050446e-01</leafValues></_>
    <_>
      <internalNodes>
        0 -1 3105 937427750 -1854597323 1107022253 191493212 -1466711219
        -304231938 1652945272 1549868660</internalNodes>
      <leafValues>
        -3.3731126785278320e-01 1.7045807838439941e-01</leafValues></_></weakClassifiers></stage11>
</opencv_storage>
