<?xml version="1.0"?>
<opencv_storage>
<stage10>
  <maxWeakCount>18</maxWeakCount>
  <stageThreshold>-1.4703108072280884e+00</stageThreshold>
  <weakClassifiers>
    <_>
      <internalNodes>
        0 -1 3226 -1626349569 -1081926165 -1114648107 -254949121
        -1112564818 -475124753 -2020623105 -1812460736</internalNodes>
      <leafValues>
        -6.8256253004074097e-01 -2.4938675761222839e-01</leafValues></_>
    <_>
      <internalNodes>
        0 -1 1794 -537180470 -23658278 -24007293 -149274184 -2113850352
        -102234086 558298080 -71774760</internalNodes>
      <leafValues>
        -3.4632754325866699e-01 1.8943057954311371e-01</leafValues></_>
    <_>
      <internalNodes>
        0 -1 714 -1196287248 -281979168 -704758669 -137942403 -289825008
        -1039370692 -122112093 -1682989572</internalNodes>
      <leafValues>
        -2.2809530794620514e-01 2.8761601448059082e-01</leafValues></_>
    <_>
      <internalNodes>
        0 -1 3954 -1850846499 -1931461456 -1226107407 -233242771
        -1099000168 -2017044612 -141648130 -80169764</internalNodes>
      <leafValues>
        -2.2068594396114349e-01 2.8527104854583740e-01</leafValues></_>
    <_>
      <internalNodes>
        0 -1 3776 46012554 -1574670194 -134040169 -1169486880
        -1702174682 -570940846 -1492582466 -83313523</internalNodes>
      <leafValues>
        -2.8400036692619324e-01 2.2160306572914124e-01</leafValues></_>
    <_>
      <internalNodes>
        0 -1 429 334236828 379213202 -92231534 998125730 -1444987750
        2087999071 318771391 139795901</internalNodes>
      <leafValues>
        -3.8345861434936523e-01 1.9406406581401825e-01</leafValues></_>
    <_>
      <internalNodes>
        0 -1 3616 -1958978556 -135419108 1726682588 2088542493 264775032
        -810481030 595882622 1048331536</internalNodes>
      <leafValues>
        -4.0620788931846619e-01 1.4060075581073761e-01</leafValues></_>
    <_>
      <internalNodes>
        0 -1 3924 -1139569416 -903136008 1856993273 -219715923
        -1514555675 1173732024 -1242180621 -1074080516</internalNodes>
      <leafValues>
        -2.0014552772045135e-01 3.0356609821319580e-01</leafValues></_>
    <_>
      <internalNodes>
        0 -1 1466 -314579832 -79285284 -1592584814 1607754452 655396284
        -281255031 1003360346 207361466</internalNodes>
      <leafValues>
        -3.6531457304954529e-01 1.7956590652465820e-01</leafValues></_>
    <_>
      <internalNodes>
        0 -1 348 -1299569198 -1951634976 -1176601475 -42602267
        -1922008892 -731931779 -2097404510 -135609364</internalNodes>
      <leafValues>
        -2.4941731989383698e-01 2.6465514302253723e-01</leafValues></_>
    <_>
      <internalNodes>
        0 -1 2887 535828896 1547376853 -577551013 -1087164215
        -1389681026 -573633955 244099745 -384220493</internalNodes>
      <leafValues>
        -3.3952102065086365e-01 2.0690532028675079e-01</leafValues></_>
    <_>
      <internalNodes>
        0 -1 2853 -759444792 -83357845 -1104695926 -159441157
        -1365705656 41058142 100073123 -67374944</internalNodes>
      <leafValues>
        -2.0325802266597748e-01 3.2076612114906311e-01</leafValues></_>
    <_>
      <internalNodes>
        0 -1 3227 -1098366544 -979405732 -1197748544 1717217216
        650950363 1441640648 520806227 -1558030351</internalNodes>
      <leafValues>
        -3.2635557651519775e-01 2.0185747742652893e-01</leafValues></_>
    <_>
      <internalNodes>
        0 -1 1980 -122224950 -1113615048 -1375833356 -1245712787
        645157248 -1635846285 -638165637 1609556206</internalNodes>
      <leafValues>
        -2.4149401485919952e-01 2.6804211735725403e-01</leafValues></_>
    <_>
      <internalNodes>
        0 -1 3888 -107653916 -353386967 2012516976 -692327056
        -1092233654 -1619054759 400751826 -629216816</internalNodes>
      <leafValues>
        -2.5203809142112732e-01 2.7378776669502258e-01</leafValues></_>
    <_>
      <internalNodes>
        0 -1 1949 8847566 305563978 -922601364 -800542576 1895629506
        -566689686 -1322988894 -613633031</internalNodes>
      <leafValues>
        -2.9888448119163513e-01 2.2200056910514832e-01</leafValues></_>
    <_>
      <internalNodes>
        0 -1 3541 -1700090445 2127502373 -1656987549 -189033623
        -1236481742 -838311848 -752143417 -1276510028</internalNodes>
      <leafValues>
        -2.6789590716362000e-01 2.4366278946399689e-01</leafValues></_>
    <_>
      <internalNodes>
        0 -1 3958 -1298459156 -417447024 -454731809 1177890007
        -1077015778 -21467062 -1089934594 992651502</internalNodes>
      <leafValues>
        -3.2266095280647278e-01 2.1126836538314819e-01</leafValues></_></weakClassifiers></stage10>
</opencv_storage>
