<?xml version="1.0"?>
<opencv_storage>
<stage7>
  <maxWeakCount>13</maxWeakCount>
  <stageThreshold>-1.5734447240829468e+00</stageThreshold>
  <weakClassifiers>
    <_>
      <internalNodes>
        0 -1 2747 -623130464 -221642680 -2130650912 -739291120
        -1048326000 -1610022880 -492142342 -204748610</internalNodes>
      <leafValues>
        -6.7654657363891602e-01 3.3707864582538605e-02</leafValues></_>
    <_>
      <internalNodes>
        0 -1 2479 -32994816 -771620854 1610661930 -210632056 -523718638
        536920064 -242687014 -211819862</internalNodes>
      <leafValues>
        -3.6016914248466492e-01 3.4915822744369507e-01</leafValues></_>
    <_>
      <internalNodes>
        0 -1 2511 -924678016 -665147742 1324799572 -780958616
        -2072202868 83850364 74286506 -742715250</internalNodes>
      <leafValues>
        -2.5135087966918945e-01 4.3667718768119812e-01</leafValues></_>
    <_>
      <internalNodes>
        0 -1 2506 -682901374 -641048419 -1290460160 139902498 1881371587
        337907743 -804828981 1076095882</internalNodes>
      <leafValues>
        -3.9614161849021912e-01 2.8592455387115479e-01</leafValues></_>
    <_>
      <internalNodes>
        0 -1 2363 -87564638 -64401822 -1397964896 1411763247 -838570518
        1311219044 1190631119 1188020743</internalNodes>
      <leafValues>
        -2.9884183406829834e-01 3.4149873256683350e-01</leafValues></_>
    <_>
      <internalNodes>
        0 -1 2787 -620043104 -232518144 803663056 -803662720 265589968
        -1219068585 -1844185976 -78949394</internalNodes>
      <leafValues>
        -1.9609218835830688e-01 4.5872834324836731e-01</leafValues></_>
    <_>
      <internalNodes>
        0 -1 3778 -702306156 -156341735 785280520 -265834996 -1377919229
        255350001 -2144086562 -1818519877</internalNodes>
      <leafValues>
        -2.1987956762313843e-01 4.5297294855117798e-01</leafValues></_>
    <_>
      <internalNodes>
        0 -1 3147 -562519888 -144044431 -286015951 -205784194
        -2102086527 1495889525 -970010212 -1147436406</internalNodes>
      <leafValues>
        -1.7736460268497467e-01 4.8911187052726746e-01</leafValues></_>
    <_>
      <internalNodes>
        0 -1 2079 -218128376 -241020886 1343406210 -791995708 292489312
        67112992 317026944 -1020657128</internalNodes>
      <leafValues>
        -3.4510061144828796e-01 2.6899752020835876e-01</leafValues></_>
    <_>
      <internalNodes>
        0 -1 1989 -622294904 -240726290 -823358098 -181737016
        -1667390321 -178475 -1116668982 -2084586354</internalNodes>
      <leafValues>
        -2.1353915333747864e-01 4.4078823924064636e-01</leafValues></_>
    <_>
      <internalNodes>
        0 -1 237 1687127714 998502893 1305554897 450352089 306242185
        851964297 1898265936 71799891</internalNodes>
      <leafValues>
        -4.2380186915397644e-01 2.2450090944766998e-01</leafValues></_>
    <_>
      <internalNodes>
        0 -1 2631 -761082720 -391148448 1978286006 -239382816
        -1652682846 490681574 77000876 -745556534</internalNodes>
      <leafValues>
        -2.1969152987003326e-01 4.4044011831283569e-01</leafValues></_>
    <_>
      <internalNodes>
        0 -1 441 -782899674 532988698 1363699868 31117825 -102089778
        1969000597 -72189154 1626722827</internalNodes>
      <leafValues>
        -3.9379793405532837e-01 2.4877887964248657e-01</leafValues></_></weakClassifiers></stage7>
</opencv_storage>
