<?xml version="1.0"?>
<opencv_storage>
<stage2>
  <maxWeakCount>15</maxWeakCount>
  <stageThreshold>-1.4828472137451172e+00</stageThreshold>
  <weakClassifiers>
    <_>
      <internalNodes>
        0 -1 405 -1 -4459585 -73799426 -525825 -51724354 -377508597
        -7700673 -318767329</internalNodes>
      <leafValues>
        -6.6752928495407104e-01 -1.2552301399409771e-02</leafValues></_>
    <_>
      <internalNodes>
        0 -1 639 -253559299 930610601 461246768 737930477 -669515777
        1019966313 -1342763144 -2047380377</internalNodes>
      <leafValues>
        -3.9489260315895081e-01 2.3396284878253937e-01</leafValues></_>
    <_>
      <internalNodes>
        0 -1 2346 -286474580 501192387 -187706952 -1247416841
        -1429461332 -608793916 -1364781253 -1547599801</internalNodes>
      <leafValues>
        -3.4658885002136230e-01 2.7260574698448181e-01</leafValues></_>
    <_>
      <internalNodes>
        0 -1 3219 -1624309761 -2014386193 -402936079 -17306370
        -1112019470 -2013987884 771192212 -673397264</internalNodes>
      <leafValues>
        -2.7160030603408813e-01 3.3114054799079895e-01</leafValues></_>
    <_>
      <internalNodes>
        0 -1 2761 -167837871 1375598153 -415490312 -982012424 1874558719
        526237693 -1359260417 -869185616</internalNodes>
      <leafValues>
        -2.8428119421005249e-01 3.2202607393264771e-01</leafValues></_>
    <_>
      <internalNodes>
        0 -1 144 291977467 -67961930 -1698700553 -1146651491 -1182849441
        -1501964429 1136604628 -594476860</internalNodes>
      <leafValues>
        -2.4805085361003876e-01 3.2771220803260803e-01</leafValues></_>
    <_>
      <internalNodes>
        0 -1 1817 -729897310 -190931174 -225969730 670021822 1583431201
        649329249 1375632702 138612274</internalNodes>
      <leafValues>
        -4.2425665259361267e-01 2.0755481719970703e-01</leafValues></_>
    <_>
      <internalNodes>
        0 -1 2673 1066404914 392411670 -1086853635 727167473 1708190953
        -1126717107 -134284803 -924453585</internalNodes>
      <leafValues>
        -3.1609997153282166e-01 2.7835783362388611e-01</leafValues></_>
    <_>
      <internalNodes>
        0 -1 3390 925507430 -358464561 -55389639 1190540510 -2019611634
        -881084721 921378527 -954310274</internalNodes>
      <leafValues>
        -3.4675669670104980e-01 2.4669015407562256e-01</leafValues></_>
    <_>
      <internalNodes>
        0 -1 325 463996208 -1416662752 -693163197 1946139577 -1912714444
        170115560 95954001 -1719803448</internalNodes>
      <leafValues>
        -4.2686516046524048e-01 1.8640816211700439e-01</leafValues></_>
    <_>
      <internalNodes>
        0 -1 59 1823276792 1836459816 1628675280 1729298196 336357278
        -68872566 -1369469678 150274168</internalNodes>
      <leafValues>
        -4.3577635288238525e-01 2.0048639178276062e-01</leafValues></_>
    <_>
      <internalNodes>
        0 -1 1160 -355535262 -1258358847 886554542 574532836 1034607903
        39209534 1485698327 1205519415</internalNodes>
      <leafValues>
        -4.5562148094177246e-01 1.8023692071437836e-01</leafValues></_>
    <_>
      <internalNodes>
        0 -1 3629 992190441 -545297074 -169953803 -357494989 2005413718
        -823111137 -1343587089 -2073790026</internalNodes>
      <leafValues>
        -3.1646609306335449e-01 2.6641327142715454e-01</leafValues></_>
    <_>
      <internalNodes>
        0 -1 88 724586424 1025993050 -1745151874 1033008914 361560525
        -1118411151 300245619 -1942678167</internalNodes>
      <leafValues>
        -3.9882412552833557e-01 2.0111234486103058e-01</leafValues></_>
    <_>
      <internalNodes>
        0 -1 2059 -1619058738 -2089108775 1765222598 -1560659872
        -1238291347 1450695511 1171002613 -947971737</internalNodes>
      <leafValues>
        -3.7611737847328186e-01 2.1172420680522919e-01</leafValues></_></weakClassifiers></stage2>
</opencv_storage>
