<?xml version="1.0"?>
<opencv_storage>
<stage8>
  <maxWeakCount>12</maxWeakCount>
  <stageThreshold>-1.4168431758880615e+00</stageThreshold>
  <weakClassifiers>
    <_>
      <internalNodes>
        0 -1 27 -134217953 -25235457 -5410 -218169421 -33669185
        2012872629 -19497193 -390725825</internalNodes>
      <leafValues>
        -7.1453964710235596e-01 -1.6112747788429260e-01</leafValues></_>
    <_>
      <internalNodes>
        0 -1 2030 -1073774929 662634359 -419991986 -1367724226
        1056921461 -50331777 -8452251 -465567893</internalNodes>
      <leafValues>
        -4.4558155536651611e-01 2.2104972600936890e-01</leafValues></_>
    <_>
      <internalNodes>
        0 -1 2374 -302125217 1190117245 -2367557 -520702281 1476357927
        2029256695 -320382345 -404422795</internalNodes>
      <leafValues>
        -3.4120288491249084e-01 3.0947262048721313e-01</leafValues></_>
    <_>
      <internalNodes>
        0 -1 3754 799006495 -1895994561 -1094770822 -1593944129
        1033270855 1265012835 -94522501 -1426262707</internalNodes>
      <leafValues>
        -3.1053131818771362e-01 2.8989055752754211e-01</leafValues></_>
    <_>
      <internalNodes>
        0 -1 721 -1099205259 712980319 -268804357 682127103 -42631377
        2113793911 -107404 -420085913</internalNodes>
      <leafValues>
        -2.8623700141906738e-01 3.0281311273574829e-01</leafValues></_>
    <_>
      <internalNodes>
        0 -1 789 -420483354 -1703031685 -269025314 -1461670330
        1564392900 1550936973 1842310479 -513479842</internalNodes>
      <leafValues>
        -3.6272609233856201e-01 2.1634335815906525e-01</leafValues></_>
    <_>
      <internalNodes>
        0 -1 2570 159337959 -1438685753 968146766 -1362552042 712734793
        1743547338 -50595242 -994610469</internalNodes>
      <leafValues>
        -3.4824198484420776e-01 2.2681656479835510e-01</leafValues></_>
    <_>
      <internalNodes>
        0 -1 2434 -859363318 40824502 -1081266661 609349308 350778624
        494297491 -52301531 1087841317</internalNodes>
      <leafValues>
        -5.6015884876251221e-01 1.4270809292793274e-01</leafValues></_>
    <_>
      <internalNodes>
        0 -1 44 -1245766229 -76600086 -239184558 -664651009 1581872957
        1966715257 -289548476 -1572569683</internalNodes>
      <leafValues>
        -3.2537835836410522e-01 2.3902031779289246e-01</leafValues></_>
    <_>
      <internalNodes>
        0 -1 623 -1558768670 1935519567 -1093372034 -1922531686
        -1963295103 50289235 -68149740 1075958373</internalNodes>
      <leafValues>
        -4.4491222500801086e-01 1.6828669607639313e-01</leafValues></_>
    <_>
      <internalNodes>
        0 -1 3294 197141934 157753661 1811148285 549418469 1794592866
        -1725973603 519420728 738332452</internalNodes>
      <leafValues>
        -4.4638657569885254e-01 1.6592027246952057e-01</leafValues></_>
    <_>
      <internalNodes>
        0 -1 834 2145267938 -825546498 -1263739226 1510756078
        -1181214637 1618806493 2103628630 -421259812</internalNodes>
      <leafValues>
        -3.9070245623588562e-01 1.8665222823619843e-01</leafValues></_></weakClassifiers></stage8>
</opencv_storage>
