<?xml version="1.0"?>
<opencv_storage>
<stage4>
  <maxWeakCount>15</maxWeakCount>
  <stageThreshold>-1.3654531240463257e+00</stageThreshold>
  <weakClassifiers>
    <_>
      <internalNodes>
        0 -1 1665 -119603713 -1143243301 1972574459 -1210061761
        -1082409991 -1103169 -1417978883 -15753</internalNodes>
      <leafValues>
        -6.6452223062515259e-01 -1.0306748747825623e-01</leafValues></_>
    <_>
      <internalNodes>
        0 -1 126 2104885176 -160304865 -1619396653 -9142701 1599045823
        -340662542 -1879697777 -1197174385</internalNodes>
      <leafValues>
        -3.5302436351776123e-01 2.4077002704143524e-01</leafValues></_>
    <_>
      <internalNodes>
        0 -1 2852 2112899504 1405074516 1297372159 487975128 695155967
        -663094851 2147445673 494489555</internalNodes>
      <leafValues>
        -3.8247442245483398e-01 2.0853365957736969e-01</leafValues></_>
    <_>
      <internalNodes>
        0 -1 3755 998190043 -154834580 -950608393 -1541718962
        -1153662981 -385537125 -289783873 -1930032835</internalNodes>
      <leafValues>
        -3.0020374059677124e-01 2.6385900378227234e-01</leafValues></_>
    <_>
      <internalNodes>
        0 -1 2352 -1460869687 -1648374029 1021264280 159584079
        1856827549 402378472 -1446106818 201613831</internalNodes>
      <leafValues>
        -3.1192168593406677e-01 2.6369500160217285e-01</leafValues></_>
    <_>
      <internalNodes>
        0 -1 2117 -389106942 -1139816794 -58393138 -246028625 -891263060
        -1117664361 -219484757 -355733149</internalNodes>
      <leafValues>
        -2.7806675434112549e-01 2.6522248983383179e-01</leafValues></_>
    <_>
      <internalNodes>
        0 -1 7 -5850371 2146916600 -654917889 2028961785 -20978117
        -1208045698 -27413261 -91480584</internalNodes>
      <leafValues>
        -2.0495918393135071e-01 3.4914568066596985e-01</leafValues></_>
    <_>
      <internalNodes>
        0 -1 181 11562872 964146483 1976948375 -901132 129710335
        -1087420809 -1810424634 -1646839483</internalNodes>
      <leafValues>
        -3.4406995773315430e-01 2.1258702874183655e-01</leafValues></_>
    <_>
      <internalNodes>
        0 -1 947 787394080 -1204103177 509075406 1992095451 1968801412
        775110779 -614989960 1079500646</internalNodes>
      <leafValues>
        -4.4284608960151672e-01 1.6353969275951385e-01</leafValues></_>
    <_>
      <internalNodes>
        0 -1 20 -11606260 1542370506 722795253 1010417711 -32695348
        1803368727 -1578929547 -256713283</internalNodes>
      <leafValues>
        -3.0604159832000732e-01 2.3392438888549805e-01</leafValues></_>
    <_>
      <internalNodes>
        0 -1 790 -297368010 653829986 -1784703184 193514861 1131068853
        922100348 1883266413 1147239026</internalNodes>
      <leafValues>
        -4.7621467709541321e-01 1.5188607573509216e-01</leafValues></_>
    <_>
      <internalNodes>
        0 -1 3185 800291858 -889410213 -1605876907 -329310359 728854727
        -966115577 -1704575121 -1991108461</internalNodes>
      <leafValues>
        -3.3644798398017883e-01 2.0615866780281067e-01</leafValues></_>
    <_>
      <internalNodes>
        0 -1 3311 972291328 1563621327 354466287 -1757993207 1875277560
        -556980680 -1566480129 -1432325059</internalNodes>
      <leafValues>
        -3.1848263740539551e-01 2.3357544839382172e-01</leafValues></_>
    <_>
      <internalNodes>
        0 -1 351 -1176029189 -1602160872 1588124380 -18918627
        -1677723790 1104039036 1898687303 -1613773492</internalNodes>
      <leafValues>
        -2.7091872692108154e-01 2.7489808201789856e-01</leafValues></_>
    <_>
      <internalNodes>
        0 -1 3733 -1638052467 559224005 -983570945 -1875911971
        -1355036275 -795438363 1238943151 -167636636</internalNodes>
      <leafValues>
        -2.7516880631446838e-01 2.6975232362747192e-01</leafValues></_></weakClassifiers></stage4>
</opencv_storage>
