<?xml version="1.0"?>
<opencv_storage>
<stage3>
  <maxWeakCount>14</maxWeakCount>
  <stageThreshold>-1.4712082147598267e+00</stageThreshold>
  <weakClassifiers>
    <_>
      <internalNodes>
        0 -1 647 -8391425 -36175873 -72122369 -1342177857 2063595519
        -4194369 -32907 -939530377</internalNodes>
      <leafValues>
        -6.7816454172134399e-01 -6.9518715143203735e-02</leafValues></_>
    <_>
      <internalNodes>
        0 -1 2092 -822083601 -441450577 2079326126 -530973185 1336927743
        -830472325 -809545979 -1930570736</internalNodes>
      <leafValues>
        -3.8609144091606140e-01 2.2066362202167511e-01</leafValues></_>
    <_>
      <internalNodes>
        0 -1 2493 1937170436 100136306 -268652546 -2115627374 1972533111
        569751413 788495908 -395025324</internalNodes>
      <leafValues>
        -5.1008403301239014e-01 1.7210482060909271e-01</leafValues></_>
    <_>
      <internalNodes>
        0 -1 3773 733951487 -1898503235 -537395618 -957186179
        -1482687413 -828377221 -1092879361 -1619017810</internalNodes>
      <leafValues>
        -2.6666781306266785e-01 3.2487881183624268e-01</leafValues></_>
    <_>
      <internalNodes>
        0 -1 1400 -565444612 775044981 -33672128 -1973524418 796341609
        634846591 351544441 -998906009</internalNodes>
      <leafValues>
        -3.7328007817268372e-01 2.4540255963802338e-01</leafValues></_>
    <_>
      <internalNodes>
        0 -1 848 -1098926546 627761094 -1083250078 708490670 1979088702
        1155593307 -1918543097 673578757</internalNodes>
      <leafValues>
        -5.3645163774490356e-01 1.6251710057258606e-01</leafValues></_>
    <_>
      <internalNodes>
        0 -1 1282 79196156 684882798 683487763 -1160397875 510853118
        1066702205 184557791 -1942737296</internalNodes>
      <leafValues>
        -4.8465645313262939e-01 1.8336732685565948e-01</leafValues></_>
    <_>
      <internalNodes>
        0 -1 2654 1198033154 1180018948 -1414010625 -1892439310
        1693797630 -1444984575 1089437151 20007627</internalNodes>
      <leafValues>
        -4.4224530458450317e-01 1.8314380943775177e-01</leafValues></_>
    <_>
      <internalNodes>
        0 -1 296 872906604 1006513661 1062157247 -1817870852 2087833437
        57379639 395718774 -704817055</internalNodes>
      <leafValues>
        -3.3724570274353027e-01 2.4646256864070892e-01</leafValues></_>
    <_>
      <internalNodes>
        0 -1 1298 -201659838 856620858 1388231666 -1477640514 2109683589
        -1503658719 -142263539 1080415332</internalNodes>
      <leafValues>
        -4.4577744603157043e-01 1.7960500717163086e-01</leafValues></_>
    <_>
      <internalNodes>
        0 -1 447 -1344844690 216966114 1838608098 -1418678625 729719225
        811776180 -938056913 1227262998</internalNodes>
      <leafValues>
        -4.1471716761589050e-01 1.8440547585487366e-01</leafValues></_>
    <_>
      <internalNodes>
        0 -1 373 -1686749589 787417311 760552767 -1885509690 593455987
        520059962 932242753 -170958660</internalNodes>
      <leafValues>
        -3.3968129754066467e-01 2.3321090638637543e-01</leafValues></_>
    <_>
      <internalNodes>
        0 -1 2345 1722285273 -253755714 -1282450385 816316147 130240309
        -2055373257 -842734307 -851189897</internalNodes>
      <leafValues>
        -2.6869022846221924e-01 3.0847615003585815e-01</leafValues></_>
    <_>
      <internalNodes>
        0 -1 1479 -540069718 -421567714 1560933044 -30712959 456123229
        369181012 1395892384 -470548</internalNodes>
      <leafValues>
        -2.9256281256675720e-01 2.7957090735435486e-01</leafValues></_></weakClassifiers></stage3>
</opencv_storage>
