<?xml version="1.0"?>
<opencv_storage>
<stage6>
  <maxWeakCount>4</maxWeakCount>
  <stageThreshold>-1.6118801832199097e+00</stageThreshold>
  <weakClassifiers>
    <_>
      <internalNodes>
        0 -1 31740 -111823909 1359216661 -805187567 1359302915
        -922637670 -1333690368 -1979153670 147511963</internalNodes>
      <leafValues>
        -7.3991030454635620e-01 5.9566789865493774e-01</leafValues></_>
    <_>
      <internalNodes>
        0 -1 1294 -719592033 1528005705 -2113929133 1075056727
        1359437903 1746427908 587352107 2050967691</internalNodes>
      <leafValues>
        -7.8189212083816528e-01 5.2519541978836060e-01</leafValues></_>
    <_>
      <internalNodes>
        0 -1 20128 79696381 525537285 1133041 -1626079232 268468632
        -1172144000 -934767638 -1370981848</internalNodes>
      <leafValues>
        -6.5789067745208740e-01 6.6946488618850708e-01</leafValues></_>
    <_>
      <internalNodes>
        0 -1 12949 -502019582 840155151 421630352 1547649950 94145379
        -1006534653 -519398575 -744263277</internalNodes>
      <leafValues>
        -7.6776522397994995e-01 5.4239684343338013e-01</leafValues></_></weakClassifiers></stage6>
</opencv_storage>
