<?xml version="1.0"?>
<opencv_storage>
<cascade>
  <stageType>BOOST</stageType>
  <featureType>HAAR</featureType>
  <height>25</height>
  <width>25</width>
  <stageParams>
    <boostType>GAB</boostType>
    <minHitRate>9.9500000476837158e-01</minHitRate>
    <maxFalseAlarm>4.0000000596046448e-01</maxFalseAlarm>
    <weightTrimRate>9.4999999999999996e-01</weightTrimRate>
    <maxDepth>1</maxDepth>
    <maxWeakCount>100</maxWeakCount></stageParams>
  <featureParams>
    <maxCatCount>0</maxCatCount>
    <featSize>1</featSize>
    <mode>ALL</mode></featureParams>
  <stageNum>15</stageNum>
  <stages>
    <!-- stage 0 -->
    <_>
      <maxWeakCount>4</maxWeakCount>
      <stageThreshold>-9.1433346271514893e-01</stageThreshold>
      <weakClassifiers>
        <_>
          <internalNodes>
            0 -1 25 4.3345130980014801e-02</internalNodes>
          <leafValues>
            -8.9081567525863647e-01 7.5455415248870850e-01</leafValues></_>
        <_>
          <internalNodes>
            0 -1 95 1.0758138960227370e-03</internalNodes>
          <leafValues>
            -8.7048870325088501e-01 4.8031303286552429e-01</leafValues></_>
        <_>
          <internalNodes>
            0 -1 3 6.9933220744132996e-02</internalNodes>
          <leafValues>
            -8.3093827962875366e-01 4.8655757308006287e-01</leafValues></_>
        <_>
          <internalNodes>
            0 -1 44 -2.4459940195083618e-01</internalNodes>
          <leafValues>
            3.6041328310966492e-01 -9.7966164350509644e-01</leafValues></_></weakClassifiers></_>
    <!-- stage 1 -->
    <_>
      <maxWeakCount>4</maxWeakCount>
      <stageThreshold>-7.9803347587585449e-01</stageThreshold>
      <weakClassifiers>
        <_>
          <internalNodes>
            0 -1 46 1.5277959406375885e-02</internalNodes>
          <leafValues>
            -8.0052840709686279e-01 5.6353592872619629e-01</leafValues></_>
        <_>
          <internalNodes>
            0 -1 26 6.6507928073406219e-02</internalNodes>
          <leafValues>
            -8.0599254369735718e-01 4.7042769193649292e-01</leafValues></_>
        <_>
          <internalNodes>
            0 -1 21 -1.2512232642620802e-03</internalNodes>
          <leafValues>
            4.3048667907714844e-01 -8.5337007045745850e-01</leafValues></_>
        <_>
          <internalNodes>
            0 -1 101 2.4557850338169374e-05</internalNodes>
          <leafValues>
            -8.0740314722061157e-01 3.8543730974197388e-01</leafValues></_></weakClassifiers></_>
    <!-- stage 2 -->
    <_>
      <maxWeakCount>5</maxWeakCount>
      <stageThreshold>-1.3395088911056519e+00</stageThreshold>
      <weakClassifiers>
        <_>
          <internalNodes>
            0 -1 9 1.7108865082263947e-02</internalNodes>
          <leafValues>
            -6.4489310979843140e-01 5.3056770563125610e-01</leafValues></_>
        <_>
          <internalNodes>
            0 -1 114 6.1158294556662440e-05</internalNodes>
          <leafValues>
            -8.9943051338195801e-01 3.5752475261688232e-01</leafValues></_>
        <_>
          <internalNodes>
            0 -1 98 -9.8854601383209229e-03</internalNodes>
          <leafValues>
            5.0645369291305542e-01 -6.2252485752105713e-01</leafValues></_>
        <_>
          <internalNodes>
            0 -1 58 -2.3404324054718018e-01</internalNodes>
          <leafValues>
            3.8576483726501465e-01 -8.7568479776382446e-01</leafValues></_>
        <_>
          <internalNodes>
            0 -1 4 4.9602545797824860e-02</internalNodes>
          <leafValues>
            -6.9885611534118652e-01 4.4157469272613525e-01</leafValues></_></weakClassifiers></_>
    <!-- stage 3 -->
    <_>
      <maxWeakCount>7</maxWeakCount>
      <stageThreshold>-1.0472496747970581e+00</stageThreshold>
      <weakClassifiers>
        <_>
          <internalNodes>
            0 -1 46 2.6815623044967651e-02</internalNodes>
          <leafValues>
            -6.8000000715255737e-01 5.1794874668121338e-01</leafValues></_>
        <_>
          <internalNodes>
            0 -1 30 -1.2433577467163559e-05</internalNodes>
          <leafValues>
            4.0740606188774109e-01 -7.1892207860946655e-01</leafValues></_>
        <_>
          <internalNodes>
            0 -1 107 2.4306471459567547e-05</internalNodes>
          <leafValues>
            -6.3728433847427368e-01 4.3290668725967407e-01</leafValues></_>
        <_>
          <internalNodes>
            0 -1 96 2.4032229703152552e-05</internalNodes>
          <leafValues>
            -7.3970216512680054e-01 4.2767179012298584e-01</leafValues></_>
        <_>
          <internalNodes>
            0 -1 27 9.8986566066741943e-02</internalNodes>
          <leafValues>
            -4.2193403840065002e-01 6.8952846527099609e-01</leafValues></_>
        <_>
          <internalNodes>
            0 -1 56 6.2086349353194237e-03</internalNodes>
          <leafValues>
            -4.0139642357826233e-01 6.8808960914611816e-01</leafValues></_>
        <_>
          <internalNodes>
            0 -1 18 3.7364405579864979e-04</internalNodes>
          <leafValues>
            3.5547018051147461e-01 -8.9752435684204102e-01</leafValues></_></weakClassifiers></_>
    <!-- stage 4 -->
    <_>
      <maxWeakCount>6</maxWeakCount>
      <stageThreshold>-9.4041335582733154e-01</stageThreshold>
      <weakClassifiers>
        <_>
          <internalNodes>
            0 -1 106 2.7477246476337314e-05</internalNodes>
          <leafValues>
            -8.9743590354919434e-01 1.4423076808452606e-01</leafValues></_>
        <_>
          <internalNodes>
            0 -1 91 -1.0164689272642136e-02</internalNodes>
          <leafValues>
            4.6345812082290649e-01 -5.8454000949859619e-01</leafValues></_>
        <_>
          <internalNodes>
            0 -1 19 -7.3420838452875614e-04</internalNodes>
          <leafValues>
            3.8816592097282410e-01 -7.0349323749542236e-01</leafValues></_>
        <_>
          <internalNodes>
            0 -1 8 1.0903099551796913e-02</internalNodes>
          <leafValues>
            -4.9548429250717163e-01 5.7319682836532593e-01</leafValues></_>
        <_>
          <internalNodes>
            0 -1 121 -2.5973991796490736e-05</internalNodes>
          <leafValues>
            3.5198166966438293e-01 -6.9781154394149780e-01</leafValues></_>
        <_>
          <internalNodes>
            0 -1 57 -1.2856478802859783e-02</internalNodes>
          <leafValues>
            3.4689176082611084e-01 -7.1134412288665771e-01</leafValues></_></weakClassifiers></_>
    <!-- stage 5 -->
    <_>
      <maxWeakCount>6</maxWeakCount>
      <stageThreshold>-1.0208173990249634e+00</stageThreshold>
      <weakClassifiers>
        <_>
          <internalNodes>
            0 -1 35 -4.0822058916091919e-01</internalNodes>
          <leafValues>
            3.5823169350624084e-01 -8.3074533939361572e-01</leafValues></_>
        <_>
          <internalNodes>
            0 -1 61 -1.2009438127279282e-02</internalNodes>
          <leafValues>
            4.3332561850547791e-01 -5.0910162925720215e-01</leafValues></_>
        <_>
          <internalNodes>
            0 -1 83 1.1565714329481125e-01</internalNodes>
          <leafValues>
            -7.3076057434082031e-01 2.9499918222427368e-01</leafValues></_>
        <_>
          <internalNodes>
            0 -1 0 -5.1344238454475999e-04</internalNodes>
          <leafValues>
            -9.0169411897659302e-01 2.2211232781410217e-01</leafValues></_>
        <_>
          <internalNodes>
            0 -1 0 4.0431116940453649e-04</internalNodes>
          <leafValues>
            2.0320560038089752e-01 -8.0093568563461304e-01</leafValues></_>
        <_>
          <internalNodes>
            0 -1 71 3.2063696533441544e-02</internalNodes>
          <leafValues>
            -3.1795504689216614e-01 7.0175814628601074e-01</leafValues></_></weakClassifiers></_>
    <!-- stage 6 -->
    <_>
      <maxWeakCount>8</maxWeakCount>
      <stageThreshold>-1.3906290531158447e+00</stageThreshold>
      <weakClassifiers>
        <_>
          <internalNodes>
            0 -1 29 -2.2547186817973852e-03</internalNodes>
          <leafValues>
            1.9206236302852631e-01 -7.3254835605621338e-01</leafValues></_>
        <_>
          <internalNodes>
            0 -1 97 -3.4442404285073280e-03</internalNodes>
          <leafValues>
            4.1194745898246765e-01 -5.6108278036117554e-01</leafValues></_>
        <_>
          <internalNodes>
            0 -1 33 -5.8094495907425880e-03</internalNodes>
          <leafValues>
            4.4034099578857422e-01 -5.4631376266479492e-01</leafValues></_>
        <_>
          <internalNodes>
            0 -1 40 -7.7234586933627725e-04</internalNodes>
          <leafValues>
            3.5136607289314270e-01 -6.2839871644973755e-01</leafValues></_>
        <_>
          <internalNodes>
            0 -1 70 3.4179314970970154e-02</internalNodes>
          <leafValues>
            -2.6893392205238342e-01 7.8794759511947632e-01</leafValues></_>
        <_>
          <internalNodes>
            0 -1 78 2.8197828680276871e-02</internalNodes>
          <leafValues>
            -3.1317147612571716e-01 7.0332717895507812e-01</leafValues></_>
        <_>
          <internalNodes>
            0 -1 47 2.2839961573481560e-02</internalNodes>
          <leafValues>
            -4.6714958548545837e-01 4.2915958166122437e-01</leafValues></_>
        <_>
          <internalNodes>
            0 -1 110 3.0356447678059340e-04</internalNodes>
          <leafValues>
            2.2259402275085449e-01 -8.3475536108016968e-01</leafValues></_></weakClassifiers></_>
    <!-- stage 7 -->
    <_>
      <maxWeakCount>10</maxWeakCount>
      <stageThreshold>-1.1342946290969849e+00</stageThreshold>
      <weakClassifiers>
        <_>
          <internalNodes>
            0 -1 90 -1.1623334139585495e-02</internalNodes>
          <leafValues>
            3.6618357896804810e-01 -6.2555909156799316e-01</leafValues></_>
        <_>
          <internalNodes>
            0 -1 118 1.3031563139520586e-04</internalNodes>
          <leafValues>
            -7.4473124742507935e-01 2.3442287743091583e-01</leafValues></_>
        <_>
          <internalNodes>
            0 -1 73 1.1039715260267258e-02</internalNodes>
          <leafValues>
            -5.0968813896179199e-01 3.6506542563438416e-01</leafValues></_>
        <_>
          <internalNodes>
            0 -1 65 6.1289556324481964e-03</internalNodes>
          <leafValues>
            -2.5752282142639160e-01 6.4526128768920898e-01</leafValues></_>
        <_>
          <internalNodes>
            0 -1 89 1.3993608765304089e-02</internalNodes>
          <leafValues>
            -3.1099686026573181e-01 6.0554236173629761e-01</leafValues></_>
        <_>
          <internalNodes>
            0 -1 64 2.6292171329259872e-02</internalNodes>
          <leafValues>
            -3.7536874413490295e-01 5.0015771389007568e-01</leafValues></_>
        <_>
          <internalNodes>
            0 -1 5 3.6162935197353363e-02</internalNodes>
          <leafValues>
            -5.4545855522155762e-01 3.4159117937088013e-01</leafValues></_>
        <_>
          <internalNodes>
            0 -1 36 -6.6280990722589195e-05</internalNodes>
          <leafValues>
            1.9169425964355469e-01 -7.6661926507949829e-01</leafValues></_>
        <_>
          <internalNodes>
            0 -1 37 9.7694736905395985e-04</internalNodes>
          <leafValues>
            1.5270791947841644e-01 -8.5701090097427368e-01</leafValues></_>
        <_>
          <internalNodes>
            0 -1 115 -3.4981494536623359e-04</internalNodes>
          <leafValues>
            -8.5032880306243896e-01 1.5693923830986023e-01</leafValues></_></weakClassifiers></_>
    <!-- stage 8 -->
    <_>
      <maxWeakCount>9</maxWeakCount>
      <stageThreshold>-1.3047560453414917e+00</stageThreshold>
      <weakClassifiers>
        <_>
          <internalNodes>
            0 -1 123 -5.6397472508251667e-04</internalNodes>
          <leafValues>
            1.9888734817504883e-01 -7.6247847080230713e-01</leafValues></_>
        <_>
          <internalNodes>
            0 -1 28 -1.1832511425018311e-01</internalNodes>
          <leafValues>
            2.1116821467876434e-01 -8.4223598241806030e-01</leafValues></_>
        <_>
          <internalNodes>
            0 -1 99 1.0273915249854326e-03</internalNodes>
          <leafValues>
            -8.0498307943344116e-01 1.9596555829048157e-01</leafValues></_>
        <_>
          <internalNodes>
            0 -1 45 2.5278534740209579e-03</internalNodes>
          <leafValues>
            -7.5387674570083618e-01 2.2208037972450256e-01</leafValues></_>
        <_>
          <internalNodes>
            0 -1 39 -2.8564035892486572e-03</internalNodes>
          <leafValues>
            3.3592164516448975e-01 -4.7346326708793640e-01</leafValues></_>
        <_>
          <internalNodes>
            0 -1 74 4.3691702187061310e-02</internalNodes>
          <leafValues>
            -9.3894511461257935e-01 1.7249177396297455e-01</leafValues></_>
        <_>
          <internalNodes>
            0 -1 10 2.0623400807380676e-02</internalNodes>
          <leafValues>
            -2.9371041059494019e-01 6.2050098180770874e-01</leafValues></_>
        <_>
          <internalNodes>
            0 -1 109 -3.2195195672102273e-04</internalNodes>
          <leafValues>
            -7.3700630664825439e-01 2.2505530714988708e-01</leafValues></_>
        <_>
          <internalNodes>
            0 -1 108 3.9939489215612411e-04</internalNodes>
          <leafValues>
            2.5223484635353088e-01 -6.9449955224990845e-01</leafValues></_></weakClassifiers></_>
    <!-- stage 9 -->
    <_>
      <maxWeakCount>9</maxWeakCount>
      <stageThreshold>-1.1380770206451416e+00</stageThreshold>
      <weakClassifiers>
        <_>
          <internalNodes>
            0 -1 54 -4.3525127694010735e-03</internalNodes>
          <leafValues>
            2.4931506812572479e-01 -5.8006644248962402e-01</leafValues></_>
        <_>
          <internalNodes>
            0 -1 72 3.4459404647350311e-02</internalNodes>
          <leafValues>
            -3.9498323202133179e-01 4.3320730328559875e-01</leafValues></_>
        <_>
          <internalNodes>
            0 -1 17 -4.0556490421295166e-04</internalNodes>
          <leafValues>
            -8.5800719261169434e-01 1.8267174065113068e-01</leafValues></_>
        <_>
          <internalNodes>
            0 -1 63 -3.1999904662370682e-02</internalNodes>
          <leafValues>
            7.4190145730972290e-01 -2.2362190485000610e-01</leafValues></_>
        <_>
          <internalNodes>
            0 -1 67 4.0404349565505981e-02</internalNodes>
          <leafValues>
            -4.6071648597717285e-01 5.2840715646743774e-01</leafValues></_>
        <_>
          <internalNodes>
            0 -1 1 -9.2813424998894334e-04</internalNodes>
          <leafValues>
            2.9980549216270447e-01 -5.5734008550643921e-01</leafValues></_>
        <_>
          <internalNodes>
            0 -1 111 -1.4121953863650560e-03</internalNodes>
          <leafValues>
            4.8519223928451538e-01 -3.7842389941215515e-01</leafValues></_>
        <_>
          <internalNodes>
            0 -1 105 4.4190668268129230e-04</internalNodes>
          <leafValues>
            -5.0873851776123047e-01 3.7159240245819092e-01</leafValues></_>
        <_>
          <internalNodes>
            0 -1 113 -3.2846769317984581e-04</internalNodes>
          <leafValues>
            -7.9018676280975342e-01 2.0207074284553528e-01</leafValues></_></weakClassifiers></_>
    <!-- stage 10 -->
    <_>
      <maxWeakCount>10</maxWeakCount>
      <stageThreshold>-9.3983572721481323e-01</stageThreshold>
      <weakClassifiers>
        <_>
          <internalNodes>
            0 -1 50 -3.5845227539539337e-02</internalNodes>
          <leafValues>
            5.9595960378646851e-01 -4.2517814040184021e-01</leafValues></_>
        <_>
          <internalNodes>
            0 -1 14 -1.2706808047369123e-04</internalNodes>
          <leafValues>
            2.7454432845115662e-01 -6.5726393461227417e-01</leafValues></_>
        <_>
          <internalNodes>
            0 -1 88 2.6302059268346056e-05</internalNodes>
          <leafValues>
            -5.8870619535446167e-01 2.3871019482612610e-01</leafValues></_>
        <_>
          <internalNodes>
            0 -1 93 -7.4221839895471931e-04</internalNodes>
          <leafValues>
            -7.0371043682098389e-01 2.5648918747901917e-01</leafValues></_>
        <_>
          <internalNodes>
            0 -1 49 6.3881598412990570e-02</internalNodes>
          <leafValues>
            -2.2294671833515167e-01 7.8996348381042480e-01</leafValues></_>
        <_>
          <internalNodes>
            0 -1 86 4.6654548496007919e-03</internalNodes>
          <leafValues>
            -4.1271930932998657e-01 3.9984959363937378e-01</leafValues></_>
        <_>
          <internalNodes>
            0 -1 112 5.1469531172187999e-05</internalNodes>
          <leafValues>
            -8.7418889999389648e-01 1.7278720438480377e-01</leafValues></_>
        <_>
          <internalNodes>
            0 -1 92 -3.4024133346974850e-03</internalNodes>
          <leafValues>
            3.1392937898635864e-01 -5.0374561548233032e-01</leafValues></_>
        <_>
          <internalNodes>
            0 -1 119 9.6848933026194572e-04</internalNodes>
          <leafValues>
            1.4107041060924530e-01 -8.6948376893997192e-01</leafValues></_>
        <_>
          <internalNodes>
            0 -1 81 1.1729989200830460e-02</internalNodes>
          <leafValues>
            -3.0147507786750793e-01 5.5865395069122314e-01</leafValues></_></weakClassifiers></_>
    <!-- stage 11 -->
    <_>
      <maxWeakCount>11</maxWeakCount>
      <stageThreshold>-1.1728426218032837e+00</stageThreshold>
      <weakClassifiers>
        <_>
          <internalNodes>
            0 -1 103 -3.1989984214305878e-02</internalNodes>
          <leafValues>
            9.1380424797534943e-02 -7.0104068517684937e-01</leafValues></_>
        <_>
          <internalNodes>
            0 -1 52 6.6668186336755753e-03</internalNodes>
          <leafValues>
            -4.4096988439559937e-01 3.5565519332885742e-01</leafValues></_>
        <_>
          <internalNodes>
            0 -1 59 7.1565760299563408e-03</internalNodes>
          <leafValues>
            -3.7773507833480835e-01 3.9064052700996399e-01</leafValues></_>
        <_>
          <internalNodes>
            0 -1 116 4.7170778270810843e-04</internalNodes>
          <leafValues>
            1.7020411789417267e-01 -9.2075145244598389e-01</leafValues></_>
        <_>
          <internalNodes>
            0 -1 69 -3.8510754704475403e-02</internalNodes>
          <leafValues>
            6.9476515054702759e-01 -2.3203383386135101e-01</leafValues></_>
        <_>
          <internalNodes>
            0 -1 48 7.1158744394779205e-03</internalNodes>
          <leafValues>
            -3.4701958298683167e-01 4.2235612869262695e-01</leafValues></_>
        <_>
          <internalNodes>
            0 -1 22 -1.6301058349199593e-04</internalNodes>
          <leafValues>
            2.1862776577472687e-01 -7.1544885635375977e-01</leafValues></_>
        <_>
          <internalNodes>
            0 -1 32 1.0487477295100689e-02</internalNodes>
          <leafValues>
            -6.4249557256698608e-01 2.2076824307441711e-01</leafValues></_>
        <_>
          <internalNodes>
            0 -1 55 1.4737170934677124e-01</internalNodes>
          <leafValues>
            -3.5221588611602783e-01 4.3875557184219360e-01</leafValues></_>
        <_>
          <internalNodes>
            0 -1 104 6.9109974429011345e-03</internalNodes>
          <leafValues>
            -2.7355444431304932e-01 5.2745580673217773e-01</leafValues></_>
        <_>
          <internalNodes>
            0 -1 94 1.3536916230805218e-04</internalNodes>
          <leafValues>
            -4.1640445590019226e-01 3.3790752291679382e-01</leafValues></_></weakClassifiers></_>
    <!-- stage 12 -->
    <_>
      <maxWeakCount>13</maxWeakCount>
      <stageThreshold>-1.1303313970565796e+00</stageThreshold>
      <weakClassifiers>
        <_>
          <internalNodes>
            0 -1 117 -2.1019416453782469e-04</internalNodes>
          <leafValues>
            2.4985473603010178e-02 -7.3151308298110962e-01</leafValues></_>
        <_>
          <internalNodes>
            0 -1 43 -5.6424969807267189e-04</internalNodes>
          <leafValues>
            -7.0664799213409424e-01 1.4895260334014893e-01</leafValues></_>
        <_>
          <internalNodes>
            0 -1 79 5.4988986812531948e-04</internalNodes>
          <leafValues>
            -3.8020810484886169e-01 3.4881153702735901e-01</leafValues></_>
        <_>
          <internalNodes>
            0 -1 100 1.0043145448435098e-04</internalNodes>
          <leafValues>
            -5.6469094753265381e-01 2.3098377883434296e-01</leafValues></_>
        <_>
          <internalNodes>
            0 -1 6 5.3437471389770508e-02</internalNodes>
          <leafValues>
            -7.6455050706863403e-01 1.6873379051685333e-01</leafValues></_>
        <_>
          <internalNodes>
            0 -1 120 -3.9258768083527684e-05</internalNodes>
          <leafValues>
            -7.8387254476547241e-01 1.3692598044872284e-01</leafValues></_>
        <_>
          <internalNodes>
            0 -1 41 -2.7488763444125652e-03</internalNodes>
          <leafValues>
            2.9455545544624329e-01 -3.9119425415992737e-01</leafValues></_>
        <_>
          <internalNodes>
            0 -1 7 -1.4041844010353088e-01</internalNodes>
          <leafValues>
            1.6033801436424255e-01 -8.2416403293609619e-01</leafValues></_>
        <_>
          <internalNodes>
            0 -1 76 2.6567291468381882e-02</internalNodes>
          <leafValues>
            -3.1646487116813660e-01 4.8986253142356873e-01</leafValues></_>
        <_>
          <internalNodes>
            0 -1 82 4.1268877685070038e-02</internalNodes>
          <leafValues>
            -3.5617178678512573e-01 4.3951550126075745e-01</leafValues></_>
        <_>
          <internalNodes>
            0 -1 11 1.0565456002950668e-02</internalNodes>
          <leafValues>
            -2.4517984688282013e-01 6.1757647991180420e-01</leafValues></_>
        <_>
          <internalNodes>
            0 -1 53 4.6000774018466473e-03</internalNodes>
          <leafValues>
            -3.4042757749557495e-01 3.9505895972251892e-01</leafValues></_>
        <_>
          <internalNodes>
            0 -1 64 3.8390573114156723e-02</internalNodes>
          <leafValues>
            -3.3035323023796082e-01 4.1797199845314026e-01</leafValues></_></weakClassifiers></_>
    <!-- stage 13 -->
    <_>
      <maxWeakCount>11</maxWeakCount>
      <stageThreshold>-9.4103008508682251e-01</stageThreshold>
      <weakClassifiers>
        <_>
          <internalNodes>
            0 -1 80 4.0667295455932617e-02</internalNodes>
          <leafValues>
            -4.9080118536949158e-01 2.4808743596076965e-01</leafValues></_>
        <_>
          <internalNodes>
            0 -1 15 -1.8996787257492542e-03</internalNodes>
          <leafValues>
            2.3566710948944092e-01 -5.1624017953872681e-01</leafValues></_>
        <_>
          <internalNodes>
            0 -1 68 -3.0048657208681107e-02</internalNodes>
          <leafValues>
            6.0703408718109131e-01 -2.1415808796882629e-01</leafValues></_>
        <_>
          <internalNodes>
            0 -1 13 2.0299789030104876e-03</internalNodes>
          <leafValues>
            2.0113916695117950e-01 -6.4256978034973145e-01</leafValues></_>
        <_>
          <internalNodes>
            0 -1 23 1.0189737658947706e-03</internalNodes>
          <leafValues>
            1.3642464578151703e-01 -7.6047700643539429e-01</leafValues></_>
        <_>
          <internalNodes>
            0 -1 2 -4.8629741650074720e-04</internalNodes>
          <leafValues>
            -6.2582385540008545e-01 1.7550724744796753e-01</leafValues></_>
        <_>
          <internalNodes>
            0 -1 42 -7.7612891793251038e-02</internalNodes>
          <leafValues>
            2.0016844570636749e-01 -5.8074671030044556e-01</leafValues></_>
        <_>
          <internalNodes>
            0 -1 66 2.4696806445717812e-02</internalNodes>
          <leafValues>
            -2.2560028731822968e-01 5.6217902898788452e-01</leafValues></_>
        <_>
          <internalNodes>
            0 -1 87 8.2586128264665604e-03</internalNodes>
          <leafValues>
            -3.4061533212661743e-01 4.1141813993453979e-01</leafValues></_>
        <_>
          <internalNodes>
            0 -1 34 7.3894396424293518e-02</internalNodes>
          <leafValues>
            2.1378467977046967e-01 -6.4905893802642822e-01</leafValues></_>
        <_>
          <internalNodes>
            0 -1 16 4.3511265539564192e-04</internalNodes>
          <leafValues>
            1.2197262048721313e-01 -8.9823246002197266e-01</leafValues></_></weakClassifiers></_>
    <!-- stage 14 -->
    <_>
      <maxWeakCount>14</maxWeakCount>
      <stageThreshold>-1.2419842481613159e+00</stageThreshold>
      <weakClassifiers>
        <_>
          <internalNodes>
            0 -1 122 -2.0048045553267002e-03</internalNodes>
          <leafValues>
            5.7705361396074295e-02 -6.0780835151672363e-01</leafValues></_>
        <_>
          <internalNodes>
            0 -1 24 -8.3163403905928135e-04</internalNodes>
          <leafValues>
            -5.3062635660171509e-01 1.7566315829753876e-01</leafValues></_>
        <_>
          <internalNodes>
            0 -1 12 4.6659121289849281e-04</internalNodes>
          <leafValues>
            -3.2358866930007935e-01 3.5036519169807434e-01</leafValues></_>
        <_>
          <internalNodes>
            0 -1 20 -9.3155264039523900e-05</internalNodes>
          <leafValues>
            1.7781038582324982e-01 -7.8688883781433105e-01</leafValues></_>
        <_>
          <internalNodes>
            0 -1 77 5.6627996265888214e-02</internalNodes>
          <leafValues>
            -2.8228041529655457e-01 4.4774562120437622e-01</leafValues></_>
        <_>
          <internalNodes>
            0 -1 102 1.4341224450618029e-03</internalNodes>
          <leafValues>
            -4.9371170997619629e-01 2.8914743661880493e-01</leafValues></_>
        <_>
          <internalNodes>
            0 -1 60 2.0711939781904221e-02</internalNodes>
          <leafValues>
            -3.2667818665504456e-01 4.4809558987617493e-01</leafValues></_>
        <_>
          <internalNodes>
            0 -1 85 2.5548260658979416e-02</internalNodes>
          <leafValues>
            -2.5452208518981934e-01 5.5018252134323120e-01</leafValues></_>
        <_>
          <internalNodes>
            0 -1 38 7.7475249767303467e-02</internalNodes>
          <leafValues>
            2.2117777168750763e-01 -6.4608776569366455e-01</leafValues></_>
        <_>
          <internalNodes>
            0 -1 31 -5.2645336836576462e-04</internalNodes>
          <leafValues>
            -6.5124577283859253e-01 1.8416424095630646e-01</leafValues></_>
        <_>
          <internalNodes>
            0 -1 62 3.8258150219917297e-02</internalNodes>
          <leafValues>
            -3.3866092562675476e-01 3.6096134781837463e-01</leafValues></_>
        <_>
          <internalNodes>
            0 -1 51 6.1954096890985966e-03</internalNodes>
          <leafValues>
            -2.6299354434013367e-01 5.7282507419586182e-01</leafValues></_>
        <_>
          <internalNodes>
            0 -1 84 5.3983245044946671e-02</internalNodes>
          <leafValues>
            -1.7763099074363708e-01 6.5817320346832275e-01</leafValues></_>
        <_>
          <internalNodes>
            0 -1 75 3.3061951398849487e-02</internalNodes>
          <leafValues>
            -2.5277918577194214e-01 5.3734904527664185e-01</leafValues></_></weakClassifiers></_></stages>
  <features>
    <_>
      <rects>
        <_>
          0 0 4 2 -1.</_>
        <_>
          1 0 2 2 2.</_></rects>
      <tilted>0</tilted></_>
    <_>
      <rects>
        <_>
          0 0 6 6 -1.</_>
        <_>
          2 2 2 2 9.</_></rects>
      <tilted>0</tilted></_>
    <_>
      <rects>
        <_>
          0 0 6 1 -1.</_>
        <_>
          3 0 3 1 2.</_></rects>
      <tilted>0</tilted></_>
    <_>
      <rects>
        <_>
          0 0 24 17 -1.</_>
        <_>
          6 0 12 17 2.</_></rects>
      <tilted>0</tilted></_>
    <_>
      <rects>
        <_>
          0 1 24 4 -1.</_>
        <_>
          6 1 12 4 2.</_></rects>
      <tilted>0</tilted></_>
    <_>
      <rects>
        <_>
          0 1 12 6 -1.</_>
        <_>
          6 1 6 6 2.</_></rects>
      <tilted>0</tilted></_>
    <_>
      <rects>
        <_>
          0 2 24 16 -1.</_>
        <_>
          6 2 12 16 2.</_></rects>
      <tilted>0</tilted></_>
    <_>
      <rects>
        <_>
          0 2 24 18 -1.</_>
        <_>
          0 11 24 9 2.</_></rects>
      <tilted>0</tilted></_>
    <_>
      <rects>
        <_>
          0 5 4 8 -1.</_>
        <_>
          2 5 2 8 2.</_></rects>
      <tilted>0</tilted></_>
    <_>
      <rects>
        <_>
          0 5 6 5 -1.</_>
        <_>
          3 5 3 5 2.</_></rects>
      <tilted>0</tilted></_>
    <_>
      <rects>
        <_>
          0 9 8 9 -1.</_>
        <_>
          2 9 4 9 2.</_></rects>
      <tilted>0</tilted></_>
    <_>
      <rects>
        <_>
          0 11 6 8 -1.</_>
        <_>
          2 11 2 8 3.</_></rects>
      <tilted>0</tilted></_>
    <_>
      <rects>
        <_>
          0 12 2 2 -1.</_>
        <_>
          1 12 1 2 2.</_></rects>
      <tilted>0</tilted></_>
    <_>
      <rects>
        <_>
          0 13 1 9 -1.</_>
        <_>
          0 16 1 3 3.</_></rects>
      <tilted>0</tilted></_>
    <_>
      <rects>
        <_>
          0 17 1 6 -1.</_>
        <_>
          0 20 1 3 2.</_></rects>
      <tilted>0</tilted></_>
    <_>
      <rects>
        <_>
          0 19 6 6 -1.</_>
        <_>
          0 21 6 2 3.</_></rects>
      <tilted>0</tilted></_>
    <_>
      <rects>
        <_>
          0 20 3 2 -1.</_>
        <_>
          1 20 1 2 3.</_></rects>
      <tilted>0</tilted></_>
    <_>
      <rects>
        <_>
          0 21 3 2 -1.</_>
        <_>
          1 21 1 2 3.</_></rects>
      <tilted>0</tilted></_>
    <_>
      <rects>
        <_>
          0 22 3 2 -1.</_>
        <_>
          1 22 1 2 3.</_></rects>
      <tilted>0</tilted></_>
    <_>
      <rects>
        <_>
          0 22 6 2 -1.</_>
        <_>
          3 22 3 2 2.</_></rects>
      <tilted>0</tilted></_>
    <_>
      <rects>
        <_>
          0 23 6 1 -1.</_>
        <_>
          3 23 3 1 2.</_></rects>
      <tilted>0</tilted></_>
    <_>
      <rects>
        <_>
          0 23 10 2 -1.</_>
        <_>
          5 23 5 2 2.</_></rects>
      <tilted>0</tilted></_>
    <_>
      <rects>
        <_>
          0 24 8 1 -1.</_>
        <_>
          4 24 4 1 2.</_></rects>
      <tilted>0</tilted></_>
    <_>
      <rects>
        <_>
          1 0 4 2 -1.</_>
        <_>
          3 0 2 2 2.</_></rects>
      <tilted>0</tilted></_>
    <_>
      <rects>
        <_>
          1 0 20 1 -1.</_>
        <_>
          11 0 10 1 2.</_></rects>
      <tilted>0</tilted></_>
    <_>
      <rects>
        <_>
          1 1 24 4 -1.</_>
        <_>
          7 1 12 4 2.</_></rects>
      <tilted>0</tilted></_>
    <_>
      <rects>
        <_>
          1 1 24 8 -1.</_>
        <_>
          7 1 12 8 2.</_></rects>
      <tilted>0</tilted></_>
    <_>
      <rects>
        <_>
          1 2 12 9 -1.</_>
        <_>
          5 5 4 3 9.</_></rects>
      <tilted>0</tilted></_>
    <_>
      <rects>
        <_>
          1 3 9 22 -1.</_>
        <_>
          1 14 9 11 2.</_></rects>
      <tilted>0</tilted></_>
    <_>
      <rects>
        <_>
          1 17 3 6 -1.</_>
        <_>
          1 20 3 3 2.</_></rects>
      <tilted>0</tilted></_>
    <_>
      <rects>
        <_>
          1 23 2 1 -1.</_>
        <_>
          2 23 1 1 2.</_></rects>
      <tilted>0</tilted></_>
    <_>
      <rects>
        <_>
          1 24 8 1 -1.</_>
        <_>
          3 24 4 1 2.</_></rects>
      <tilted>0</tilted></_>
    <_>
      <rects>
        <_>
          2 0 8 5 -1.</_>
        <_>
          6 0 4 5 2.</_></rects>
      <tilted>0</tilted></_>
    <_>
      <rects>
        <_>
          2 4 4 2 -1.</_>
        <_>
          2 4 2 2 2.</_></rects>
      <tilted>1</tilted></_>
    <_>
      <rects>
        <_>
          2 5 16 20 -1.</_>
        <_>
          10 5 8 20 2.</_></rects>
      <tilted>0</tilted></_>
    <_>
      <rects>
        <_>
          2 5 22 20 -1.</_>
        <_>
          2 15 22 10 2.</_></rects>
      <tilted>0</tilted></_>
    <_>
      <rects>
        <_>
          2 24 14 1 -1.</_>
        <_>
          9 24 7 1 2.</_></rects>
      <tilted>0</tilted></_>
    <_>
      <rects>
        <_>
          3 0 4 1 -1.</_>
        <_>
          5 0 2 1 2.</_></rects>
      <tilted>0</tilted></_>
    <_>
      <rects>
        <_>
          3 5 20 14 -1.</_>
        <_>
          8 5 10 14 2.</_></rects>
      <tilted>0</tilted></_>
    <_>
      <rects>
        <_>
          3 20 17 2 -1.</_>
        <_>
          3 21 17 1 2.</_></rects>
      <tilted>0</tilted></_>
    <_>
      <rects>
        <_>
          3 23 8 2 -1.</_>
        <_>
          7 23 4 2 2.</_></rects>
      <tilted>0</tilted></_>
    <_>
      <rects>
        <_>
          4 1 3 4 -1.</_>
        <_>
          5 2 1 4 3.</_></rects>
      <tilted>1</tilted></_>
    <_>
      <rects>
        <_>
          4 1 9 18 -1.</_>
        <_>
          4 10 9 9 2.</_></rects>
      <tilted>0</tilted></_>
    <_>
      <rects>
        <_>
          4 3 1 4 -1.</_>
        <_>
          4 3 1 2 2.</_></rects>
      <tilted>1</tilted></_>
    <_>
      <rects>
        <_>
          4 5 17 20 -1.</_>
        <_>
          4 15 17 10 2.</_></rects>
      <tilted>0</tilted></_>
    <_>
      <rects>
        <_>
          5 0 20 3 -1.</_>
        <_>
          10 0 10 3 2.</_></rects>
      <tilted>0</tilted></_>
    <_>
      <rects>
        <_>
          5 0 15 4 -1.</_>
        <_>
          5 2 15 2 2.</_></rects>
      <tilted>0</tilted></_>
    <_>
      <rects>
        <_>
          5 0 20 4 -1.</_>
        <_>
          5 2 20 2 2.</_></rects>
      <tilted>0</tilted></_>
    <_>
      <rects>
        <_>
          5 8 6 6 -1.</_>
        <_>
          7 10 2 2 9.</_></rects>
      <tilted>0</tilted></_>
    <_>
      <rects>
        <_>
          5 8 12 11 -1.</_>
        <_>
          9 8 4 11 3.</_></rects>
      <tilted>0</tilted></_>
    <_>
      <rects>
        <_>
          5 9 9 10 -1.</_>
        <_>
          8 9 3 10 3.</_></rects>
      <tilted>0</tilted></_>
    <_>
      <rects>
        <_>
          6 1 10 3 -1.</_>
        <_>
          6 2 10 1 3.</_></rects>
      <tilted>0</tilted></_>
    <_>
      <rects>
        <_>
          6 4 1 6 -1.</_>
        <_>
          6 4 1 3 2.</_></rects>
      <tilted>1</tilted></_>
    <_>
      <rects>
        <_>
          6 14 6 6 -1.</_>
        <_>
          8 16 2 2 9.</_></rects>
      <tilted>0</tilted></_>
    <_>
      <rects>
        <_>
          6 21 14 4 -1.</_>
        <_>
          6 22 14 2 2.</_></rects>
      <tilted>0</tilted></_>
    <_>
      <rects>
        <_>
          7 0 12 12 -1.</_>
        <_>
          11 4 4 4 9.</_></rects>
      <tilted>0</tilted></_>
    <_>
      <rects>
        <_>
          7 0 7 4 -1.</_>
        <_>
          7 1 7 2 2.</_></rects>
      <tilted>0</tilted></_>
    <_>
      <rects>
        <_>
          7 0 18 4 -1.</_>
        <_>
          16 0 9 4 2.</_></rects>
      <tilted>0</tilted></_>
    <_>
      <rects>
        <_>
          7 3 11 22 -1.</_>
        <_>
          7 14 11 11 2.</_></rects>
      <tilted>0</tilted></_>
    <_>
      <rects>
        <_>
          7 5 6 6 -1.</_>
        <_>
          9 7 2 2 9.</_></rects>
      <tilted>0</tilted></_>
    <_>
      <rects>
        <_>
          7 10 9 9 -1.</_>
        <_>
          10 13 3 3 9.</_></rects>
      <tilted>0</tilted></_>
    <_>
      <rects>
        <_>
          8 0 2 7 -1.</_>
        <_>
          8 0 1 7 2.</_></rects>
      <tilted>1</tilted></_>
    <_>
      <rects>
        <_>
          8 2 9 9 -1.</_>
        <_>
          11 5 3 3 9.</_></rects>
      <tilted>0</tilted></_>
    <_>
      <rects>
        <_>
          8 5 12 11 -1.</_>
        <_>
          11 5 6 11 2.</_></rects>
      <tilted>0</tilted></_>
    <_>
      <rects>
        <_>
          8 6 9 9 -1.</_>
        <_>
          11 9 3 3 9.</_></rects>
      <tilted>0</tilted></_>
    <_>
      <rects>
        <_>
          8 11 8 4 -1.</_>
        <_>
          7 12 8 2 2.</_></rects>
      <tilted>1</tilted></_>
    <_>
      <rects>
        <_>
          8 12 9 9 -1.</_>
        <_>
          11 12 3 9 3.</_></rects>
      <tilted>0</tilted></_>
    <_>
      <rects>
        <_>
          9 4 9 9 -1.</_>
        <_>
          12 7 3 3 9.</_></rects>
      <tilted>0</tilted></_>
    <_>
      <rects>
        <_>
          10 2 7 8 -1.</_>
        <_>
          8 4 7 4 2.</_></rects>
      <tilted>1</tilted></_>
    <_>
      <rects>
        <_>
          10 3 8 8 -1.</_>
        <_>
          12 5 4 8 2.</_></rects>
      <tilted>1</tilted></_>
    <_>
      <rects>
        <_>
          10 4 6 7 -1.</_>
        <_>
          12 6 2 7 3.</_></rects>
      <tilted>1</tilted></_>
    <_>
      <rects>
        <_>
          10 6 9 9 -1.</_>
        <_>
          13 6 3 9 3.</_></rects>
      <tilted>0</tilted></_>
    <_>
      <rects>
        <_>
          10 9 9 9 -1.</_>
        <_>
          13 12 3 3 9.</_></rects>
      <tilted>0</tilted></_>
    <_>
      <rects>
        <_>
          11 0 6 6 -1.</_>
        <_>
          13 2 2 2 9.</_></rects>
      <tilted>0</tilted></_>
    <_>
      <rects>
        <_>
          11 0 14 7 -1.</_>
        <_>
          11 0 7 7 2.</_></rects>
      <tilted>1</tilted></_>
    <_>
      <rects>
        <_>
          11 4 9 9 -1.</_>
        <_>
          14 4 3 9 3.</_></rects>
      <tilted>0</tilted></_>
    <_>
      <rects>
        <_>
          11 13 9 9 -1.</_>
        <_>
          14 16 3 3 9.</_></rects>
      <tilted>0</tilted></_>
    <_>
      <rects>
        <_>
          12 4 9 9 -1.</_>
        <_>
          15 7 3 3 9.</_></rects>
      <tilted>0</tilted></_>
    <_>
      <rects>
        <_>
          12 5 9 9 -1.</_>
        <_>
          15 5 3 9 3.</_></rects>
      <tilted>0</tilted></_>
    <_>
      <rects>
        <_>
          13 0 1 2 -1.</_>
        <_>
          13 1 1 1 2.</_></rects>
      <tilted>0</tilted></_>
    <_>
      <rects>
        <_>
          13 2 9 6 -1.</_>
        <_>
          16 4 3 2 9.</_></rects>
      <tilted>0</tilted></_>
    <_>
      <rects>
        <_>
          13 5 6 10 -1.</_>
        <_>
          15 5 2 10 3.</_></rects>
      <tilted>0</tilted></_>
    <_>
      <rects>
        <_>
          13 7 9 9 -1.</_>
        <_>
          16 10 3 3 9.</_></rects>
      <tilted>0</tilted></_>
    <_>
      <rects>
        <_>
          14 0 8 14 -1.</_>
        <_>
          14 0 8 7 2.</_></rects>
      <tilted>1</tilted></_>
    <_>
      <rects>
        <_>
          14 4 9 11 -1.</_>
        <_>
          17 4 3 11 3.</_></rects>
      <tilted>0</tilted></_>
    <_>
      <rects>
        <_>
          15 6 6 6 -1.</_>
        <_>
          13 8 6 2 3.</_></rects>
      <tilted>1</tilted></_>
    <_>
      <rects>
        <_>
          15 12 6 6 -1.</_>
        <_>
          17 14 2 2 9.</_></rects>
      <tilted>0</tilted></_>
    <_>
      <rects>
        <_>
          15 12 6 9 -1.</_>
        <_>
          17 15 2 3 9.</_></rects>
      <tilted>0</tilted></_>
    <_>
      <rects>
        <_>
          15 24 4 1 -1.</_>
        <_>
          17 24 2 1 2.</_></rects>
      <tilted>0</tilted></_>
    <_>
      <rects>
        <_>
          16 13 6 10 -1.</_>
        <_>
          16 13 3 5 2.</_>
        <_>
          19 18 3 5 2.</_></rects>
      <tilted>0</tilted></_>
    <_>
      <rects>
        <_>
          17 0 8 6 -1.</_>
        <_>
          17 0 4 3 2.</_>
        <_>
          21 3 4 3 2.</_></rects>
      <tilted>0</tilted></_>
    <_>
      <rects>
        <_>
          17 4 8 2 -1.</_>
        <_>
          21 4 4 2 2.</_></rects>
      <tilted>0</tilted></_>
    <_>
      <rects>
        <_>
          18 0 4 5 -1.</_>
        <_>
          20 0 2 5 2.</_></rects>
      <tilted>0</tilted></_>
    <_>
      <rects>
        <_>
          18 0 6 1 -1.</_>
        <_>
          21 0 3 1 2.</_></rects>
      <tilted>0</tilted></_>
    <_>
      <rects>
        <_>
          18 22 2 1 -1.</_>
        <_>
          19 22 1 1 2.</_></rects>
      <tilted>0</tilted></_>
    <_>
      <rects>
        <_>
          18 22 6 2 -1.</_>
        <_>
          21 22 3 2 2.</_></rects>
      <tilted>0</tilted></_>
    <_>
      <rects>
        <_>
          18 23 2 1 -1.</_>
        <_>
          19 23 1 1 2.</_></rects>
      <tilted>0</tilted></_>
    <_>
      <rects>
        <_>
          19 1 6 6 -1.</_>
        <_>
          19 1 3 3 2.</_>
        <_>
          22 4 3 3 2.</_></rects>
      <tilted>0</tilted></_>
    <_>
      <rects>
        <_>
          19 3 6 5 -1.</_>
        <_>
          22 3 3 5 2.</_></rects>
      <tilted>0</tilted></_>
    <_>
      <rects>
        <_>
          19 21 4 4 -1.</_>
        <_>
          21 21 2 4 2.</_></rects>
      <tilted>0</tilted></_>
    <_>
      <rects>
        <_>
          19 22 2 1 -1.</_>
        <_>
          20 22 1 1 2.</_></rects>
      <tilted>0</tilted></_>
    <_>
      <rects>
        <_>
          19 23 2 1 -1.</_>
        <_>
          20 23 1 1 2.</_></rects>
      <tilted>0</tilted></_>
    <_>
      <rects>
        <_>
          20 1 2 6 -1.</_>
        <_>
          20 4 2 3 2.</_></rects>
      <tilted>0</tilted></_>
    <_>
      <rects>
        <_>
          20 1 5 24 -1.</_>
        <_>
          20 13 5 12 2.</_></rects>
      <tilted>0</tilted></_>
    <_>
      <rects>
        <_>
          20 2 5 3 -1.</_>
        <_>
          19 3 5 1 3.</_></rects>
      <tilted>1</tilted></_>
    <_>
      <rects>
        <_>
          20 13 2 1 -1.</_>
        <_>
          20 13 1 1 2.</_></rects>
      <tilted>1</tilted></_>
    <_>
      <rects>
        <_>
          20 22 2 1 -1.</_>
        <_>
          21 22 1 1 2.</_></rects>
      <tilted>0</tilted></_>
    <_>
      <rects>
        <_>
          20 23 1 2 -1.</_>
        <_>
          20 24 1 1 2.</_></rects>
      <tilted>0</tilted></_>
    <_>
      <rects>
        <_>
          21 0 4 2 -1.</_>
        <_>
          23 0 2 2 2.</_></rects>
      <tilted>0</tilted></_>
    <_>
      <rects>
        <_>
          21 1 4 1 -1.</_>
        <_>
          23 1 2 1 2.</_></rects>
      <tilted>0</tilted></_>
    <_>
      <rects>
        <_>
          21 2 4 1 -1.</_>
        <_>
          23 2 2 1 2.</_></rects>
      <tilted>0</tilted></_>
    <_>
      <rects>
        <_>
          21 8 4 1 -1.</_>
        <_>
          23 8 2 1 2.</_></rects>
      <tilted>0</tilted></_>
    <_>
      <rects>
        <_>
          21 21 4 4 -1.</_>
        <_>
          23 21 2 4 2.</_></rects>
      <tilted>0</tilted></_>
    <_>
      <rects>
        <_>
          21 22 3 3 -1.</_>
        <_>
          22 22 1 3 3.</_></rects>
      <tilted>0</tilted></_>
    <_>
      <rects>
        <_>
          21 22 4 1 -1.</_>
        <_>
          23 22 2 1 2.</_></rects>
      <tilted>0</tilted></_>
    <_>
      <rects>
        <_>
          23 2 2 2 -1.</_>
        <_>
          24 2 1 2 2.</_></rects>
      <tilted>0</tilted></_>
    <_>
      <rects>
        <_>
          23 2 2 3 -1.</_>
        <_>
          24 2 1 3 2.</_></rects>
      <tilted>0</tilted></_>
    <_>
      <rects>
        <_>
          23 17 1 6 -1.</_>
        <_>
          23 20 1 3 2.</_></rects>
      <tilted>0</tilted></_>
    <_>
      <rects>
        <_>
          23 19 1 2 -1.</_>
        <_>
          23 19 1 1 2.</_></rects>
      <tilted>1</tilted></_>
    <_>
      <rects>
        <_>
          23 19 2 4 -1.</_>
        <_>
          24 19 1 4 2.</_></rects>
      <tilted>0</tilted></_>
    <_>
      <rects>
        <_>
          23 21 2 1 -1.</_>
        <_>
          24 21 1 1 2.</_></rects>
      <tilted>0</tilted></_>
    <_>
      <rects>
        <_>
          23 22 2 1 -1.</_>
        <_>
          23 22 1 1 2.</_></rects>
      <tilted>1</tilted></_>
    <_>
      <rects>
        <_>
          24 12 1 12 -1.</_>
        <_>
          24 18 1 6 2.</_></rects>
      <tilted>0</tilted></_>
    <_>
      <rects>
        <_>
          24 15 1 8 -1.</_>
        <_>
          24 19 1 4 2.</_></rects>
      <tilted>0</tilted></_></features></cascade>
</opencv_storage>
