<?xml version="1.0"?>
<opencv_storage>
<stage6>
  <maxWeakCount>77</maxWeakCount>
  <stageThreshold>-1.6218645572662354e+00</stageThreshold>
  <weakClassifiers>
    <_>
      <internalNodes>
        0 -1 4845 9.7832575440406799e-02</internalNodes>
      <leafValues>
        -5.9539258480072021e-01 2.0888888835906982e-01</leafValues></_>
    <_>
      <internalNodes>
        0 -1 48190 -8.2642599940299988e-02</internalNodes>
      <leafValues>
        4.0300834178924561e-01 -1.4906428754329681e-01</leafValues></_>
    <_>
      <internalNodes>
        0 -1 29124 -1.3500700891017914e-01</internalNodes>
      <leafValues>
        3.8646286725997925e-01 -7.9831227660179138e-02</leafValues></_>
    <_>
      <internalNodes>
        0 -1 61889 -8.9808814227581024e-03</internalNodes>
      <leafValues>
        2.2345244884490967e-01 -1.0745477676391602e-01</leafValues></_>
    <_>
      <internalNodes>
        0 -1 12861 -1.7229107022285461e-01</internalNodes>
      <leafValues>
        7.6939874887466431e-01 -3.0450863763689995e-02</leafValues></_>
    <_>
      <internalNodes>
        0 -1 12878 -6.9675478152930737e-03</internalNodes>
      <leafValues>
        3.3936810493469238e-01 -6.9947741925716400e-02</leafValues></_>
    <_>
      <internalNodes>
        0 -1 6409 -3.4041262697428465e-03</internalNodes>
      <leafValues>
        -2.9309391975402832e-01 7.8301839530467987e-02</leafValues></_>
    <_>
      <internalNodes>
        0 -1 5205 -5.5499915033578873e-03</internalNodes>
      <leafValues>
        3.1475919485092163e-01 -4.9980923533439636e-02</leafValues></_>
    <_>
      <internalNodes>
        0 -1 25245 2.9230725765228271e-01</internalNodes>
      <leafValues>
        -6.1446335166692734e-02 3.3239549398422241e-01</leafValues></_>
    <_>
      <internalNodes>
        0 -1 11094 -1.6558562219142914e-01</internalNodes>
      <leafValues>
        2.4904291331768036e-01 -9.6809685230255127e-02</leafValues></_>
    <_>
      <internalNodes>
        0 -1 5991 -5.3279874846339226e-03</internalNodes>
      <leafValues>
        1.5223924815654755e-01 -1.4972564578056335e-01</leafValues></_>
    <_>
      <internalNodes>
        0 -1 55171 -2.0897668600082397e-01</internalNodes>
      <leafValues>
        8.6684131622314453e-01 -3.3114019781351089e-02</leafValues></_>
    <_>
      <internalNodes>
        0 -1 64328 -1.5209396369755268e-03</internalNodes>
      <leafValues>
        3.0257016420364380e-01 -5.7395618408918381e-02</leafValues></_>
    <_>
      <internalNodes>
        0 -1 796 2.5718486867845058e-03</internalNodes>
      <leafValues>
        1.0230723023414612e-01 -2.1340149641036987e-01</leafValues></_>
    <_>
      <internalNodes>
        0 -1 19984 -2.3435268085449934e-03</internalNodes>
      <leafValues>
        5.2413862943649292e-01 -5.3810466080904007e-02</leafValues></_>
    <_>
      <internalNodes>
        0 -1 31609 7.8172812936827540e-04</internalNodes>
      <leafValues>
        8.6102336645126343e-02 -1.9032621383666992e-01</leafValues></_>
    <_>
      <internalNodes>
        0 -1 32635 4.2592750105541199e-05</internalNodes>
      <leafValues>
        -1.1144285649061203e-01 1.7364592850208282e-01</leafValues></_>
    <_>
      <internalNodes>
        0 -1 77629 1.6834349371492863e-03</internalNodes>
      <leafValues>
        6.2497340142726898e-02 -2.6583674550056458e-01</leafValues></_>
    <_>
      <internalNodes>
        0 -1 77298 -1.3672439381480217e-03</internalNodes>
      <leafValues>
        3.5250467061996460e-01 -5.1932148635387421e-02</leafValues></_>
    <_>
      <internalNodes>
        0 -1 68103 -3.8522310205735266e-05</internalNodes>
      <leafValues>
        1.2833037972450256e-01 -1.3258668780326843e-01</leafValues></_>
    <_>
      <internalNodes>
        0 -1 44597 1.5109238447621465e-03</internalNodes>
      <leafValues>
        1.2128038704395294e-01 -1.5245661139488220e-01</leafValues></_>
    <_>
      <internalNodes>
        0 -1 62055 1.8118273001164198e-03</internalNodes>
      <leafValues>
        -4.7252159565687180e-02 3.8093903660774231e-01</leafValues></_>
    <_>
      <internalNodes>
        0 -1 66622 -1.8761794781312346e-03</internalNodes>
      <leafValues>
        2.8143286705017090e-01 -5.5177252739667892e-02</leafValues></_>
    <_>
      <internalNodes>
        0 -1 77557 -4.3973717838525772e-03</internalNodes>
      <leafValues>
        -2.8061383962631226e-01 6.1130043119192123e-02</leafValues></_>
    <_>
      <internalNodes>
        0 -1 60725 -1.1176601052284241e-01</internalNodes>
      <leafValues>
        -4.5875293016433716e-01 3.4407619386911392e-02</leafValues></_>
    <_>
      <internalNodes>
        0 -1 62741 1.0700090788304806e-03</internalNodes>
      <leafValues>
        7.4375741183757782e-02 -2.0575751364231110e-01</leafValues></_>
    <_>
      <internalNodes>
        0 -1 59030 -1.7631028313189745e-03</internalNodes>
      <leafValues>
        2.7092081308364868e-01 -5.8841355144977570e-02</leafValues></_>
    <_>
      <internalNodes>
        0 -1 75217 -2.0521111786365509e-02</internalNodes>
      <leafValues>
        -7.1359574794769287e-01 2.2249104455113411e-02</leafValues></_>
    <_>
      <internalNodes>
        0 -1 53127 1.0084183514118195e-01</internalNodes>
      <leafValues>
        -2.3513440042734146e-02 8.0700850486755371e-01</leafValues></_>
    <_>
      <internalNodes>
        0 -1 17466 -1.0350804775953293e-01</internalNodes>
      <leafValues>
        2.2259832918643951e-01 -6.7980192601680756e-02</leafValues></_>
    <_>
      <internalNodes>
        0 -1 56440 -1.5352373011410236e-03</internalNodes>
      <leafValues>
        1.2719668447971344e-01 -1.4323027431964874e-01</leafValues></_>
    <_>
      <internalNodes>
        0 -1 2163 -1.9268317148089409e-02</internalNodes>
      <leafValues>
        -5.0475019216537476e-01 3.2185878604650497e-02</leafValues></_>
    <_>
      <internalNodes>
        0 -1 77298 6.8719987757503986e-04</internalNodes>
      <leafValues>
        -6.8031772971153259e-02 2.5252449512481689e-01</leafValues></_>
    <_>
      <internalNodes>
        0 -1 77819 -3.1651351600885391e-03</internalNodes>
      <leafValues>
        -2.4203200638294220e-01 6.7062765359878540e-02</leafValues></_>
    <_>
      <internalNodes>
        0 -1 51633 -8.8933558436110616e-04</internalNodes>
      <leafValues>
        2.2886036336421967e-01 -7.2856903076171875e-02</leafValues></_>
    <_>
      <internalNodes>
        0 -1 52461 6.8700164556503296e-02</internalNodes>
      <leafValues>
        -6.0168057680130005e-02 2.5338605046272278e-01</leafValues></_>
    <_>
      <internalNodes>
        0 -1 65445 5.4202292812988162e-04</internalNodes>
      <leafValues>
        9.2564620077610016e-02 -1.9351308047771454e-01</leafValues></_>
    <_>
      <internalNodes>
        0 -1 33890 7.0037897676229477e-03</internalNodes>
      <leafValues>
        -4.1742220520973206e-02 4.1217023134231567e-01</leafValues></_>
    <_>
      <internalNodes>
        0 -1 6388 -4.6329878387041390e-05</internalNodes>
      <leafValues>
        1.4298018813133240e-01 -1.1012721061706543e-01</leafValues></_>
    <_>
      <internalNodes>
        0 -1 13609 3.7636284105246887e-05</internalNodes>
      <leafValues>
        -1.1880669742822647e-01 1.4790190756320953e-01</leafValues></_>
    <_>
      <internalNodes>
        0 -1 76797 -1.4636266976594925e-02</internalNodes>
      <leafValues>
        -4.7912931442260742e-01 3.2143920660018921e-02</leafValues></_>
    <_>
      <internalNodes>
        0 -1 76735 5.2563594654202461e-03</internalNodes>
      <leafValues>
        -3.4566223621368408e-02 5.5038160085678101e-01</leafValues></_>
    <_>
      <internalNodes>
        0 -1 47385 -6.3214749097824097e-02</internalNodes>
      <leafValues>
        2.0740756392478943e-01 -6.7288935184478760e-02</leafValues></_>
    <_>
      <internalNodes>
        0 -1 38719 1.0139378719031811e-03</internalNodes>
      <leafValues>
        8.5207730531692505e-02 -1.8685100972652435e-01</leafValues></_>
    <_>
      <internalNodes>
        0 -1 65328 -4.5856839278712869e-05</internalNodes>
      <leafValues>
        1.3459961116313934e-01 -1.1743187904357910e-01</leafValues></_>
    <_>
      <internalNodes>
        0 -1 42443 -1.0439839959144592e-01</internalNodes>
      <leafValues>
        2.2252815961837769e-01 -7.3709852993488312e-02</leafValues></_>
    <_>
      <internalNodes>
        0 -1 34673 2.0590227842330933e-01</internalNodes>
      <leafValues>
        -5.5514045059680939e-02 3.3481219410896301e-01</leafValues></_>
    <_>
      <internalNodes>
        0 -1 682 2.9940031468868256e-02</internalNodes>
      <leafValues>
        7.2233587503433228e-02 -2.2191882133483887e-01</leafValues></_>
    <_>
      <internalNodes>
        0 -1 46182 1.2096072547137737e-02</internalNodes>
      <leafValues>
        -5.5031716823577881e-02 3.3046951889991760e-01</leafValues></_>
    <_>
      <internalNodes>
        0 -1 10399 -2.8721857815980911e-02</internalNodes>
      <leafValues>
        1.7501470446586609e-01 -9.2366963624954224e-02</leafValues></_>
    <_>
      <internalNodes>
        0 -1 67268 1.0493203299120069e-03</internalNodes>
      <leafValues>
        1.0207241028547287e-01 -1.8213318288326263e-01</leafValues></_>
    <_>
      <internalNodes>
        0 -1 56968 -7.1096546016633511e-03</internalNodes>
      <leafValues>
        1.6019931435585022e-01 -1.0593961179256439e-01</leafValues></_>
    <_>
      <internalNodes>
        0 -1 24504 4.6091142576187849e-04</internalNodes>
      <leafValues>
        9.1319710016250610e-02 -1.7658782005310059e-01</leafValues></_>
    <_>
      <internalNodes>
        0 -1 58968 1.2337646912783384e-03</internalNodes>
      <leafValues>
        -5.4171711206436157e-02 3.0803629755973816e-01</leafValues></_>
    <_>
      <internalNodes>
        0 -1 8982 9.4466860173270106e-04</internalNodes>
      <leafValues>
        8.5072912275791168e-02 -1.8941415846347809e-01</leafValues></_>
    <_>
      <internalNodes>
        0 -1 62287 7.6995845884084702e-03</internalNodes>
      <leafValues>
        -3.5237900912761688e-02 4.2130061984062195e-01</leafValues></_>
    <_>
      <internalNodes>
        0 -1 73255 -2.0510451868176460e-03</internalNodes>
      <leafValues>
        -2.3330795764923096e-01 7.2737589478492737e-02</leafValues></_>
    <_>
      <internalNodes>
        0 -1 55762 -3.3558420836925507e-02</internalNodes>
      <leafValues>
        -7.2285127639770508e-01 1.7915261909365654e-02</leafValues></_>
    <_>
      <internalNodes>
        0 -1 37535 -9.8335687071084976e-03</internalNodes>
      <leafValues>
        2.2017620503902435e-01 -6.5119013190269470e-02</leafValues></_>
    <_>
      <internalNodes>
        0 -1 56355 4.0336060919798911e-05</internalNodes>
      <leafValues>
        -1.0416903346776962e-01 1.3747842609882355e-01</leafValues></_>
    <_>
      <internalNodes>
        0 -1 18316 -3.6868586903437972e-05</internalNodes>
      <leafValues>
        1.2750788033008575e-01 -1.1266387253999710e-01</leafValues></_>
    <_>
      <internalNodes>
        0 -1 41855 1.3042553327977657e-02</internalNodes>
      <leafValues>
        -5.2996426820755005e-02 2.7098497748374939e-01</leafValues></_>
    <_>
      <internalNodes>
        0 -1 73488 2.9854043386876583e-03</internalNodes>
      <leafValues>
        7.9197831451892853e-02 -1.9535198807716370e-01</leafValues></_>
    <_>
      <internalNodes>
        0 -1 60283 3.0578879639506340e-02</internalNodes>
      <leafValues>
        1.6529330983757973e-02 -8.4103316068649292e-01</leafValues></_>
    <_>
      <internalNodes>
        0 -1 73259 8.7450193241238594e-03</internalNodes>
      <leafValues>
        -3.4648522734642029e-02 4.4546332955360413e-01</leafValues></_>
    <_>
      <internalNodes>
        0 -1 12210 -2.4323806166648865e-02</internalNodes>
      <leafValues>
        -7.9172545671463013e-01 1.9771480932831764e-02</leafValues></_>
    <_>
      <internalNodes>
        0 -1 19630 -1.3434228021651506e-03</internalNodes>
      <leafValues>
        3.2096478343009949e-01 -5.0608728080987930e-02</leafValues></_>
    <_>
      <internalNodes>
        0 -1 11609 3.4765830636024475e-01</internalNodes>
      <leafValues>
        -1.3284242711961269e-02 8.4572172164916992e-01</leafValues></_>
    <_>
      <internalNodes>
        0 -1 39353 6.3255792483687401e-03</internalNodes>
      <leafValues>
        -2.0041367039084435e-02 6.1607778072357178e-01</leafValues></_>
    <_>
      <internalNodes>
        0 -1 33633 4.8370572039857507e-04</internalNodes>
      <leafValues>
        8.7202534079551697e-02 -1.6085892915725708e-01</leafValues></_>
    <_>
      <internalNodes>
        0 -1 63309 -1.8526328727602959e-02</internalNodes>
      <leafValues>
        1.2094803899526596e-01 -1.1220959573984146e-01</leafValues></_>
    <_>
      <internalNodes>
        0 -1 61656 8.5483230650424957e-03</internalNodes>
      <leafValues>
        -4.6171374619007111e-02 3.2386818528175354e-01</leafValues></_>
    <_>
      <internalNodes>
        0 -1 48781 9.7152851521968842e-03</internalNodes>
      <leafValues>
        -4.3941222131252289e-02 3.1010836362838745e-01</leafValues></_>
    <_>
      <internalNodes>
        0 -1 20390 2.7711391448974609e-02</internalNodes>
      <leafValues>
        -4.7397442162036896e-02 2.9587367177009583e-01</leafValues></_>
    <_>
      <internalNodes>
        0 -1 37630 -1.3570569455623627e-02</internalNodes>
      <leafValues>
        1.5428739786148071e-01 -9.2559650540351868e-02</leafValues></_>
    <_>
      <internalNodes>
        0 -1 78221 -1.3257821556180716e-03</internalNodes>
      <leafValues>
        3.4145739674568176e-01 -4.0779765695333481e-02</leafValues></_>
    <_>
      <internalNodes>
        0 -1 44561 2.5141146034002304e-03</internalNodes>
      <leafValues>
        8.4593072533607483e-02 -1.7163191735744476e-01</leafValues></_></weakClassifiers></stage6>
</opencv_storage>
