<?xml version="1.0"?>
<opencv_storage>
<stage10>
  <maxWeakCount>93</maxWeakCount>
  <stageThreshold>-1.6240713596343994e+00</stageThreshold>
  <weakClassifiers>
    <_>
      <internalNodes>
        0 -1 5590 1.6273826360702515e-01</internalNodes>
      <leafValues>
        -5.6821930408477783e-01 5.9677422046661377e-01</leafValues></_>
    <_>
      <internalNodes>
        0 -1 8286 -7.2128040483221412e-04</internalNodes>
      <leafValues>
        6.0556292533874512e-02 -3.0169954895973206e-01</leafValues></_>
    <_>
      <internalNodes>
        0 -1 45077 7.5229154899716377e-03</internalNodes>
      <leafValues>
        -1.4041911065578461e-01 1.9569283723831177e-01</leafValues></_>
    <_>
      <internalNodes>
        0 -1 48063 -5.3580954670906067e-02</internalNodes>
      <leafValues>
        2.9680851101875305e-01 -9.6483640372753143e-02</leafValues></_>
    <_>
      <internalNodes>
        0 -1 54685 2.2467853501439095e-02</internalNodes>
      <leafValues>
        -5.3285293281078339e-02 4.5904248952865601e-01</leafValues></_>
    <_>
      <internalNodes>
        0 -1 47988 -4.6100888401269913e-02</internalNodes>
      <leafValues>
        4.5767596364021301e-01 -4.9851384013891220e-02</leafValues></_>
    <_>
      <internalNodes>
        0 -1 53104 -5.8287285268306732e-02</internalNodes>
      <leafValues>
        2.2854241728782654e-01 -8.3932861685752869e-02</leafValues></_>
    <_>
      <internalNodes>
        0 -1 40233 3.2533341646194458e-01</internalNodes>
      <leafValues>
        7.1514852344989777e-02 -7.1996957063674927e-01</leafValues></_>
    <_>
      <internalNodes>
        0 -1 78271 4.5645891077583656e-05</internalNodes>
      <leafValues>
        -1.7289273440837860e-01 9.8130285739898682e-02</leafValues></_>
    <_>
      <internalNodes>
        0 -1 70567 -4.0254606574308127e-05</internalNodes>
      <leafValues>
        1.6710157692432404e-01 -1.0259161144495010e-01</leafValues></_>
    <_>
      <internalNodes>
        0 -1 15436 4.9169071018695831e-02</internalNodes>
      <leafValues>
        -7.2737887501716614e-02 2.3257483541965485e-01</leafValues></_>
    <_>
      <internalNodes>
        0 -1 53868 2.5191619060933590e-03</internalNodes>
      <leafValues>
        -6.3644923269748688e-02 3.9687946438789368e-01</leafValues></_>
    <_>
      <internalNodes>
        0 -1 314 8.6023300886154175e-02</internalNodes>
      <leafValues>
        8.5698455572128296e-02 -2.4853803217411041e-01</leafValues></_>
    <_>
      <internalNodes>
        0 -1 50882 1.5282478183507919e-02</internalNodes>
      <leafValues>
        -5.1700692623853683e-02 4.0327546000480652e-01</leafValues></_>
    <_>
      <internalNodes>
        0 -1 5594 -2.3883572220802307e-01</internalNodes>
      <leafValues>
        8.5527634620666504e-01 -1.6561741009354591e-02</leafValues></_>
    <_>
      <internalNodes>
        0 -1 78261 -4.5390363084152341e-05</internalNodes>
      <leafValues>
        1.4635853469371796e-01 -1.0522852092981339e-01</leafValues></_>
    <_>
      <internalNodes>
        0 -1 13188 4.2294763028621674e-02</internalNodes>
      <leafValues>
        -4.6546977013349533e-02 3.1365603208541870e-01</leafValues></_>
    <_>
      <internalNodes>
        0 -1 58654 2.0810827612876892e-02</internalNodes>
      <leafValues>
        -3.7777107208967209e-02 3.7871059775352478e-01</leafValues></_>
    <_>
      <internalNodes>
        0 -1 36381 -3.6569598596543074e-03</internalNodes>
      <leafValues>
        1.2898924946784973e-01 -1.1814227700233459e-01</leafValues></_>
    <_>
      <internalNodes>
        0 -1 45937 -3.3005154132843018e-01</internalNodes>
      <leafValues>
        7.3633551597595215e-01 -2.1767422556877136e-02</leafValues></_>
    <_>
      <internalNodes>
        0 -1 7545 4.3343610741430894e-05</internalNodes>
      <leafValues>
        -9.9497526884078979e-02 1.4494460821151733e-01</leafValues></_>
    <_>
      <internalNodes>
        0 -1 7545 -4.1123803384834900e-05</internalNodes>
      <leafValues>
        1.9392782449722290e-01 -1.1995610594749451e-01</leafValues></_>
    <_>
      <internalNodes>
        0 -1 72274 -6.5067363902926445e-03</internalNodes>
      <leafValues>
        2.0144872367382050e-01 -7.1769654750823975e-02</leafValues></_>
    <_>
      <internalNodes>
        0 -1 34191 -1.9343948224559426e-05</internalNodes>
      <leafValues>
        1.1637042462825775e-01 -1.2286695092916489e-01</leafValues></_>
    <_>
      <internalNodes>
        0 -1 58558 -8.9757796376943588e-04</internalNodes>
      <leafValues>
        3.0679440498352051e-01 -4.3630313128232956e-02</leafValues></_>
    <_>
      <internalNodes>
        0 -1 62396 -1.3875400181859732e-03</internalNodes>
      <leafValues>
        -2.1164597570896149e-01 7.1467295289039612e-02</leafValues></_>
    <_>
      <internalNodes>
        0 -1 38695 4.6341338020283729e-05</internalNodes>
      <leafValues>
        -1.1755131930112839e-01 1.1758996546268463e-01</leafValues></_>
    <_>
      <internalNodes>
        0 -1 19826 -8.6945846676826477e-02</internalNodes>
      <leafValues>
        1.8298955261707306e-01 -7.2743602097034454e-02</leafValues></_>
    <_>
      <internalNodes>
        0 -1 10528 2.1482291817665100e-01</internalNodes>
      <leafValues>
        -7.7577024698257446e-02 2.2075241804122925e-01</leafValues></_>
    <_>
      <internalNodes>
        0 -1 64034 -1.2860816717147827e-01</internalNodes>
      <leafValues>
        -6.3474446535110474e-01 2.1051948890089989e-02</leafValues></_>
    <_>
      <internalNodes>
        0 -1 579 7.4786591529846191e-01</internalNodes>
      <leafValues>
        2.6008116081357002e-02 -5.2620494365692139e-01</leafValues></_>
    <_>
      <internalNodes>
        0 -1 22018 -2.5392845273017883e-03</internalNodes>
      <leafValues>
        -2.5346159934997559e-01 4.9609187990427017e-02</leafValues></_>
    <_>
      <internalNodes>
        0 -1 41495 -1.3135625049471855e-02</internalNodes>
      <leafValues>
        1.7819178104400635e-01 -7.1344897150993347e-02</leafValues></_>
    <_>
      <internalNodes>
        0 -1 77982 -8.7014637887477875e-02</internalNodes>
      <leafValues>
        -8.5335040092468262e-01 1.4871445484459400e-02</leafValues></_>
    <_>
      <internalNodes>
        0 -1 40913 -3.1918468885123730e-03</internalNodes>
      <leafValues>
        2.1794760227203369e-01 -6.2877260148525238e-02</leafValues></_>
    <_>
      <internalNodes>
        0 -1 30547 3.4087467193603516e-01</internalNodes>
      <leafValues>
        -2.7553724125027657e-02 4.4760483503341675e-01</leafValues></_>
    <_>
      <internalNodes>
        0 -1 32649 4.0078139863908291e-03</internalNodes>
      <leafValues>
        -3.8559067994356155e-02 3.4006851911544800e-01</leafValues></_>
    <_>
      <internalNodes>
        0 -1 71198 -3.9963255403563380e-05</internalNodes>
      <leafValues>
        1.1880981922149658e-01 -1.1058557778596878e-01</leafValues></_>
    <_>
      <internalNodes>
        0 -1 41802 8.5260635241866112e-03</internalNodes>
      <leafValues>
        -3.9610404521226883e-02 3.5176017880439758e-01</leafValues></_>
    <_>
      <internalNodes>
        0 -1 71407 -4.4221002608537674e-03</internalNodes>
      <leafValues>
        -2.7899736166000366e-01 4.6657957136631012e-02</leafValues></_>
    <_>
      <internalNodes>
        0 -1 77662 -1.8839162294170819e-05</internalNodes>
      <leafValues>
        1.3002167642116547e-01 -1.1435939371585846e-01</leafValues></_>
    <_>
      <internalNodes>
        0 -1 45937 3.0825972557067871e-01</internalNodes>
      <leafValues>
        -1.8608367070555687e-02 6.6866540908813477e-01</leafValues></_>
    <_>
      <internalNodes>
        0 -1 68137 4.8129953211173415e-04</internalNodes>
      <leafValues>
        7.6781921088695526e-02 -1.6227620840072632e-01</leafValues></_>
    <_>
      <internalNodes>
        0 -1 65604 -1.9001640612259507e-03</internalNodes>
      <leafValues>
        3.5683804750442505e-01 -3.7007804960012436e-02</leafValues></_>
    <_>
      <internalNodes>
        0 -1 75102 4.1560950194252655e-05</internalNodes>
      <leafValues>
        -1.0114350169897079e-01 1.1361891031265259e-01</leafValues></_>
    <_>
      <internalNodes>
        0 -1 34801 4.1781999170780182e-02</internalNodes>
      <leafValues>
        -1.6395026817917824e-02 7.1197766065597534e-01</leafValues></_>
    <_>
      <internalNodes>
        0 -1 76656 1.9343948224559426e-05</internalNodes>
      <leafValues>
        -8.9960731565952301e-02 1.2848004698753357e-01</leafValues></_>
    <_>
      <internalNodes>
        0 -1 76656 -3.8764861528761685e-05</internalNodes>
      <leafValues>
        1.3659620285034180e-01 -9.0677186846733093e-02</leafValues></_>
    <_>
      <internalNodes>
        0 -1 18791 -4.6181990910554305e-05</internalNodes>
      <leafValues>
        1.0118999332189560e-01 -1.0987429320812225e-01</leafValues></_>
    <_>
      <internalNodes>
        0 -1 18786 3.4513119608163834e-03</internalNodes>
      <leafValues>
        -2.1629048511385918e-02 5.2832412719726562e-01</leafValues></_>
    <_>
      <internalNodes>
        0 -1 25093 9.7247044323012233e-04</internalNodes>
      <leafValues>
        7.1224026381969452e-02 -1.8558114767074585e-01</leafValues></_>
    <_>
      <internalNodes>
        0 -1 7545 4.1696395783219486e-05</internalNodes>
      <leafValues>
        -9.2409767210483551e-02 1.2023062258958817e-01</leafValues></_>
    <_>
      <internalNodes>
        0 -1 48258 -4.7797248698771000e-03</internalNodes>
      <leafValues>
        1.8346573412418365e-01 -5.9415314346551895e-02</leafValues></_>
    <_>
      <internalNodes>
        0 -1 60846 -9.7910629119724035e-04</internalNodes>
      <leafValues>
        9.6240118145942688e-02 -1.1893109977245331e-01</leafValues></_>
    <_>
      <internalNodes>
        0 -1 48367 4.0938638150691986e-02</internalNodes>
      <leafValues>
        -7.4948653578758240e-02 1.8051464855670929e-01</leafValues></_>
    <_>
      <internalNodes>
        0 -1 71351 -1.2341977097094059e-02</internalNodes>
      <leafValues>
        1.1464120447635651e-01 -1.1366643756628036e-01</leafValues></_>
    <_>
      <internalNodes>
        0 -1 6051 -2.8946006298065186e-01</internalNodes>
      <leafValues>
        6.2175011634826660e-01 -1.9636375829577446e-02</leafValues></_>
    <_>
      <internalNodes>
        0 -1 19145 -7.5858324766159058e-02</internalNodes>
      <leafValues>
        5.7751488685607910e-01 -1.7868526279926300e-02</leafValues></_>
    <_>
      <internalNodes>
        0 -1 45029 -1.9281840650364757e-03</internalNodes>
      <leafValues>
        4.6126082539558411e-01 -2.1507918834686279e-02</leafValues></_>
    <_>
      <internalNodes>
        0 -1 44927 -4.8236979637295008e-05</internalNodes>
      <leafValues>
        1.1108202487230301e-01 -1.0912425071001053e-01</leafValues></_>
    <_>
      <internalNodes>
        0 -1 50539 -2.4058721959590912e-02</internalNodes>
      <leafValues>
        1.5102246403694153e-01 -7.8847095370292664e-02</leafValues></_>
    <_>
      <internalNodes>
        0 -1 37498 -2.7648098766803741e-03</internalNodes>
      <leafValues>
        1.4829549193382263e-01 -9.4224587082862854e-02</leafValues></_>
    <_>
      <internalNodes>
        0 -1 32964 6.0015078634023666e-04</internalNodes>
      <leafValues>
        8.2073152065277100e-02 -1.3340017199516296e-01</leafValues></_>
    <_>
      <internalNodes>
        0 -1 36312 2.1070050075650215e-02</internalNodes>
      <leafValues>
        -7.2300143539905548e-02 1.5990315377712250e-01</leafValues></_>
    <_>
      <internalNodes>
        0 -1 35505 1.7062002792954445e-02</internalNodes>
      <leafValues>
        -5.2032545208930969e-02 2.1558502316474915e-01</leafValues></_>
    <_>
      <internalNodes>
        0 -1 56044 -2.1786321303807199e-04</internalNodes>
      <leafValues>
        -1.3085405528545380e-01 8.7895154953002930e-02</leafValues></_>
    <_>
      <internalNodes>
        0 -1 68709 4.0133400034392253e-05</internalNodes>
      <leafValues>
        -1.0138033330440521e-01 1.1272349953651428e-01</leafValues></_>
    <_>
      <internalNodes>
        0 -1 708 2.8524128720164299e-03</internalNodes>
      <leafValues>
        6.1279516667127609e-02 -2.0814050734043121e-01</leafValues></_>
    <_>
      <internalNodes>
        0 -1 644 -1.1174364015460014e-02</internalNodes>
      <leafValues>
        -2.6592832803726196e-01 4.3031830340623856e-02</leafValues></_>
    <_>
      <internalNodes>
        0 -1 40853 -1.1290910188108683e-03</internalNodes>
      <leafValues>
        2.3929260671138763e-01 -4.7859866172075272e-02</leafValues></_>
    <_>
      <internalNodes>
        0 -1 56212 -4.1564479470252991e-02</internalNodes>
      <leafValues>
        2.4289408326148987e-01 -4.4915452599525452e-02</leafValues></_>
    <_>
      <internalNodes>
        0 -1 44094 4.5861376565881073e-04</internalNodes>
      <leafValues>
        6.9567307829856873e-02 -1.7989319562911987e-01</leafValues></_>
    <_>
      <internalNodes>
        0 -1 76132 -4.7096954658627510e-03</internalNodes>
      <leafValues>
        1.2986080348491669e-01 -9.4478458166122437e-02</leafValues></_>
    <_>
      <internalNodes>
        0 -1 40709 -5.6386545300483704e-02</internalNodes>
      <leafValues>
        -6.1671090126037598e-01 1.6821501776576042e-02</leafValues></_>
    <_>
      <internalNodes>
        0 -1 14735 1.0623440146446228e-02</internalNodes>
      <leafValues>
        2.1214300766587257e-02 -4.4489118456840515e-01</leafValues></_>
    <_>
      <internalNodes>
        0 -1 27989 4.0598526538815349e-05</internalNodes>
      <leafValues>
        -1.1109685152769089e-01 1.0655888915061951e-01</leafValues></_>
    <_>
      <internalNodes>
        0 -1 7445 -5.0247210310772061e-05</internalNodes>
      <leafValues>
        1.3008090853691101e-01 -9.0261705219745636e-02</leafValues></_>
    <_>
      <internalNodes>
        0 -1 14606 -4.5739776396658272e-05</internalNodes>
      <leafValues>
        1.4504532516002655e-01 -8.9073404669761658e-02</leafValues></_>
    <_>
      <internalNodes>
        0 -1 14606 4.0598526538815349e-05</internalNodes>
      <leafValues>
        -9.5877356827259064e-02 1.2221798300743103e-01</leafValues></_>
    <_>
      <internalNodes>
        0 -1 72133 -2.3054914548993111e-02</internalNodes>
      <leafValues>
        -2.5378212332725525e-01 4.2872671037912369e-02</leafValues></_>
    <_>
      <internalNodes>
        0 -1 60584 1.8244246020913124e-02</internalNodes>
      <leafValues>
        -3.7249598652124405e-02 2.7758660912513733e-01</leafValues></_>
    <_>
      <internalNodes>
        0 -1 28929 1.7237944900989532e-01</internalNodes>
      <leafValues>
        2.0582189783453941e-02 -5.2806329727172852e-01</leafValues></_>
    <_>
      <internalNodes>
        0 -1 70334 -5.0319172441959381e-04</internalNodes>
      <leafValues>
        -1.5001547336578369e-01 6.7359983921051025e-02</leafValues></_>
    <_>
      <internalNodes>
        0 -1 54763 5.0263255834579468e-03</internalNodes>
      <leafValues>
        -6.1213713139295578e-02 1.7665611207485199e-01</leafValues></_>
    <_>
      <internalNodes>
        0 -1 3938 -4.5906327664852142e-02</internalNodes>
      <leafValues>
        -7.1361947059631348e-01 1.5221078880131245e-02</leafValues></_>
    <_>
      <internalNodes>
        0 -1 74473 -1.8839162294170819e-05</internalNodes>
      <leafValues>
        1.2176120281219482e-01 -8.8300622999668121e-02</leafValues></_>
    <_>
      <internalNodes>
        0 -1 71974 -3.2628264278173447e-02</internalNodes>
      <leafValues>
        2.1799910068511963e-01 -4.6493418514728546e-02</leafValues></_>
    <_>
      <internalNodes>
        0 -1 21871 -8.1522047519683838e-02</internalNodes>
      <leafValues>
        7.4089014530181885e-01 -1.3084158301353455e-02</leafValues></_>
    <_>
      <internalNodes>
        0 -1 24428 -1.2892735004425049e-01</internalNodes>
      <leafValues>
        1.7463664710521698e-01 -5.6452058255672455e-02</leafValues></_>
    <_>
      <internalNodes>
        0 -1 44500 -7.3757870122790337e-03</internalNodes>
      <leafValues>
        2.9971176385879517e-01 -3.8942884653806686e-02</leafValues></_>
    <_>
      <internalNodes>
        0 -1 38011 2.0573458075523376e-01</internalNodes>
      <leafValues>
        1.3329956680536270e-02 -9.2426681518554688e-01</leafValues></_>
    <_>
      <internalNodes>
        0 -1 57790 3.4170029684901237e-03</internalNodes>
      <leafValues>
        -5.0911419093608856e-02 2.5416252017021179e-01</leafValues></_>
    <_>
      <internalNodes>
        0 -1 33624 -4.1723869799170643e-05</internalNodes>
      <leafValues>
        1.1106461286544800e-01 -1.0169671475887299e-01</leafValues></_></weakClassifiers></stage10>
</opencv_storage>
