<?xml version="1.0"?>
<opencv_storage>
<stage13>
  <maxWeakCount>82</maxWeakCount>
  <stageThreshold>-1.5269712209701538e+00</stageThreshold>
  <weakClassifiers>
    <_>
      <internalNodes>
        0 -1 43649 5.8944195508956909e-02</internalNodes>
      <leafValues>
        -5.8016443252563477e-01 5.1598173379898071e-01</leafValues></_>
    <_>
      <internalNodes>
        0 -1 18527 5.1276143640279770e-02</internalNodes>
      <leafValues>
        -2.1573841571807861e-01 2.2530327737331390e-01</leafValues></_>
    <_>
      <internalNodes>
        0 -1 37932 -9.6338152885437012e-02</internalNodes>
      <leafValues>
        7.5324177742004395e-01 -4.8172622919082642e-02</leafValues></_>
    <_>
      <internalNodes>
        0 -1 27792 -9.1501080896705389e-04</internalNodes>
      <leafValues>
        -4.1982734203338623e-01 6.8536549806594849e-02</leafValues></_>
    <_>
      <internalNodes>
        0 -1 27792 5.4619961883872747e-04</internalNodes>
      <leafValues>
        1.2073705345392227e-01 -2.7136856317520142e-01</leafValues></_>
    <_>
      <internalNodes>
        0 -1 42850 5.1132775843143463e-02</internalNodes>
      <leafValues>
        -8.8078849017620087e-02 2.3579369485378265e-01</leafValues></_>
    <_>
      <internalNodes>
        0 -1 59347 -6.0964986681938171e-02</internalNodes>
      <leafValues>
        7.4978101253509521e-01 -3.5571061074733734e-02</leafValues></_>
    <_>
      <internalNodes>
        0 -1 46173 -2.7650851756334305e-02</internalNodes>
      <leafValues>
        2.0265789330005646e-01 -9.2678412795066833e-02</leafValues></_>
    <_>
      <internalNodes>
        0 -1 3 -6.6934962524101138e-04</internalNodes>
      <leafValues>
        -2.5339606404304504e-01 8.9173868298530579e-02</leafValues></_>
    <_>
      <internalNodes>
        0 -1 3 5.8082613395527005e-04</internalNodes>
      <leafValues>
        6.6428110003471375e-02 -2.5621318817138672e-01</leafValues></_>
    <_>
      <internalNodes>
        0 -1 35371 -2.0139461383223534e-02</internalNodes>
      <leafValues>
        1.8810957670211792e-01 -8.0455891788005829e-02</leafValues></_>
    <_>
      <internalNodes>
        0 -1 55129 -1.5700012445449829e-02</internalNodes>
      <leafValues>
        1.5299017727375031e-01 -1.2004621326923370e-01</leafValues></_>
    <_>
      <internalNodes>
        0 -1 2409 -1.5784819424152374e-01</internalNodes>
      <leafValues>
        -4.3408465385437012e-01 4.1933700442314148e-02</leafValues></_>
    <_>
      <internalNodes>
        0 -1 73474 -7.5027672573924065e-04</internalNodes>
      <leafValues>
        -2.5465890765190125e-01 6.5561257302761078e-02</leafValues></_>
    <_>
      <internalNodes>
        0 -1 73502 -3.9281242061406374e-04</internalNodes>
      <leafValues>
        -2.6562738418579102e-01 6.0500577092170715e-02</leafValues></_>
    <_>
      <internalNodes>
        0 -1 60803 2.6097360998392105e-02</internalNodes>
      <leafValues>
        -2.8268164023756981e-02 5.9740716218948364e-01</leafValues></_>
    <_>
      <internalNodes>
        0 -1 10169 -3.0780288577079773e-01</internalNodes>
      <leafValues>
        -8.9088469743728638e-01 2.0839346572756767e-02</leafValues></_>
    <_>
      <internalNodes>
        0 -1 31674 -6.3401991501450539e-03</internalNodes>
      <leafValues>
        1.4369298517704010e-01 -1.0526800155639648e-01</leafValues></_>
    <_>
      <internalNodes>
        0 -1 17354 -1.2177497410448268e-04</internalNodes>
      <leafValues>
        1.0589950531721115e-01 -1.5744419395923615e-01</leafValues></_>
    <_>
      <internalNodes>
        0 -1 4872 -5.4245498031377792e-03</internalNodes>
      <leafValues>
        -3.6797460913658142e-01 4.1196323931217194e-02</leafValues></_>
    <_>
      <internalNodes>
        0 -1 5667 -3.9931042119860649e-03</internalNodes>
      <leafValues>
        1.5541991591453552e-01 -9.0797550976276398e-02</leafValues></_>
    <_>
      <internalNodes>
        0 -1 76753 7.1655004285275936e-04</internalNodes>
      <leafValues>
        5.9984024614095688e-02 -2.3403435945510864e-01</leafValues></_>
    <_>
      <internalNodes>
        0 -1 18256 -1.7597377300262451e-02</internalNodes>
      <leafValues>
        1.5674759447574615e-01 -8.9290186762809753e-02</leafValues></_>
    <_>
      <internalNodes>
        0 -1 50091 -3.4135561436414719e-02</internalNodes>
      <leafValues>
        1.8798635900020599e-01 -7.3403559625148773e-02</leafValues></_>
    <_>
      <internalNodes>
        0 -1 34453 -3.0194938182830811e-01</internalNodes>
      <leafValues>
        -6.6002494096755981e-01 2.3262480273842812e-02</leafValues></_>
    <_>
      <internalNodes>
        0 -1 6005 -2.0141210407018661e-03</internalNodes>
      <leafValues>
        1.3375654816627502e-01 -1.0365265607833862e-01</leafValues></_>
    <_>
      <internalNodes>
        0 -1 12576 -4.7330465167760849e-03</internalNodes>
      <leafValues>
        1.6123402118682861e-01 -8.7801299989223480e-02</leafValues></_>
    <_>
      <internalNodes>
        0 -1 48983 3.1067433883436024e-04</internalNodes>
      <leafValues>
        8.1963822245597839e-02 -1.8031184375286102e-01</leafValues></_>
    <_>
      <internalNodes>
        0 -1 3853 -2.9086667299270630e-01</internalNodes>
      <leafValues>
        -7.8323101997375488e-01 1.7810743302106857e-02</leafValues></_>
    <_>
      <internalNodes>
        0 -1 75451 -6.5933621954172850e-04</internalNodes>
      <leafValues>
        -2.4275466799736023e-01 5.8208018541336060e-02</leafValues></_>
    <_>
      <internalNodes>
        0 -1 73667 1.7117244005203247e-01</internalNodes>
      <leafValues>
        2.0389562472701073e-02 -6.3301527500152588e-01</leafValues></_>
    <_>
      <internalNodes>
        0 -1 42485 -9.5697976648807526e-03</internalNodes>
      <leafValues>
        -1.6347876191139221e-01 8.4159120917320251e-02</leafValues></_>
    <_>
      <internalNodes>
        0 -1 40781 8.4932066500186920e-02</internalNodes>
      <leafValues>
        -3.9970003068447113e-02 4.0996828675270081e-01</leafValues></_>
    <_>
      <internalNodes>
        0 -1 77545 2.7148528024554253e-03</internalNodes>
      <leafValues>
        3.8055818527936935e-02 -3.3556848764419556e-01</leafValues></_>
    <_>
      <internalNodes>
        0 -1 26464 1.1802082881331444e-02</internalNodes>
      <leafValues>
        -1.9135344773530960e-02 6.7594426870346069e-01</leafValues></_>
    <_>
      <internalNodes>
        0 -1 22429 1.4885852579027414e-03</internalNodes>
      <leafValues>
        5.4315742105245590e-02 -2.2264140844345093e-01</leafValues></_>
    <_>
      <internalNodes>
        0 -1 10719 -4.7961521148681641e-01</internalNodes>
      <leafValues>
        -8.1022965908050537e-01 1.2900955043733120e-02</leafValues></_>
    <_>
      <internalNodes>
        0 -1 65734 5.8495998382568359e-03</internalNodes>
      <leafValues>
        4.6349987387657166e-02 -2.2689060866832733e-01</leafValues></_>
    <_>
      <internalNodes>
        0 -1 45322 9.6517860889434814e-02</internalNodes>
      <leafValues>
        4.0291469544172287e-02 -2.8758323192596436e-01</leafValues></_>
    <_>
      <internalNodes>
        0 -1 52948 2.4730656296014786e-02</internalNodes>
      <leafValues>
        -3.5606976598501205e-02 3.6798045039176941e-01</leafValues></_>
    <_>
      <internalNodes>
        0 -1 21312 -5.4319982882589102e-04</internalNodes>
      <leafValues>
        -2.0569117367267609e-01 6.0711029917001724e-02</leafValues></_>
    <_>
      <internalNodes>
        0 -1 8086 2.5212332606315613e-01</internalNodes>
      <leafValues>
        2.3556364700198174e-02 -5.1165044307708740e-01</leafValues></_>
    <_>
      <internalNodes>
        0 -1 5451 -9.3214020133018494e-02</internalNodes>
      <leafValues>
        -7.0813697576522827e-01 1.4975678175687790e-02</leafValues></_>
    <_>
      <internalNodes>
        0 -1 57205 3.1406357884407043e-02</internalNodes>
      <leafValues>
        -3.6956153810024261e-02 3.4999868273735046e-01</leafValues></_>
    <_>
      <internalNodes>
        0 -1 76399 1.9401956815272570e-03</internalNodes>
      <leafValues>
        5.0381686538457870e-02 -2.3750030994415283e-01</leafValues></_>
    <_>
      <internalNodes>
        0 -1 60893 9.8789855837821960e-02</internalNodes>
      <leafValues>
        -1.8633572384715080e-02 5.8974337577819824e-01</leafValues></_>
    <_>
      <internalNodes>
        0 -1 15886 2.7933907508850098e-01</internalNodes>
      <leafValues>
        2.0924670621752739e-02 -5.9050828218460083e-01</leafValues></_>
    <_>
      <internalNodes>
        0 -1 52348 -3.6780121736228466e-03</internalNodes>
      <leafValues>
        1.1645949631929398e-01 -9.8098888993263245e-02</leafValues></_>
    <_>
      <internalNodes>
        0 -1 41495 -4.8431626055389643e-04</internalNodes>
      <leafValues>
        9.4826810061931610e-02 -1.4630541205406189e-01</leafValues></_>
    <_>
      <internalNodes>
        0 -1 43733 3.8877695798873901e-02</internalNodes>
      <leafValues>
        -3.9327424019575119e-02 3.1297335028648376e-01</leafValues></_>
    <_>
      <internalNodes>
        0 -1 3873 2.4399533867835999e-03</internalNodes>
      <leafValues>
        2.8965165838599205e-02 -4.1230046749114990e-01</leafValues></_>
    <_>
      <internalNodes>
        0 -1 19889 -1.3377457857131958e-01</internalNodes>
      <leafValues>
        7.1140044927597046e-01 -1.7339210957288742e-02</leafValues></_>
    <_>
      <internalNodes>
        0 -1 77426 -1.1935295769944787e-03</internalNodes>
      <leafValues>
        1.4717103540897369e-01 -7.9347208142280579e-02</leafValues></_>
    <_>
      <internalNodes>
        0 -1 74790 1.2288801372051239e-03</internalNodes>
      <leafValues>
        5.4723300039768219e-02 -2.0296448469161987e-01</leafValues></_>
    <_>
      <internalNodes>
        0 -1 20019 2.6584643637761474e-04</internalNodes>
      <leafValues>
        -9.6543073654174805e-02 1.2571235001087189e-01</leafValues></_>
    <_>
      <internalNodes>
        0 -1 37085 -8.0247712321579456e-04</internalNodes>
      <leafValues>
        1.1112046241760254e-01 -1.2940502166748047e-01</leafValues></_>
    <_>
      <internalNodes>
        0 -1 8311 -6.1773425340652466e-01</internalNodes>
      <leafValues>
        -5.7181131839752197e-01 2.0048731938004494e-02</leafValues></_>
    <_>
      <internalNodes>
        0 -1 76609 6.9147991016507149e-03</internalNodes>
      <leafValues>
        2.9305523261427879e-02 -3.4751930832862854e-01</leafValues></_>
    <_>
      <internalNodes>
        0 -1 14335 1.6319451387971640e-03</internalNodes>
      <leafValues>
        4.3427221477031708e-02 -2.4753558635711670e-01</leafValues></_>
    <_>
      <internalNodes>
        0 -1 41350 -1.5994567424058914e-02</internalNodes>
      <leafValues>
        4.3443614244461060e-01 -2.5863714516162872e-02</leafValues></_>
    <_>
      <internalNodes>
        0 -1 56741 -1.6871726838871837e-03</internalNodes>
      <leafValues>
        1.0594066232442856e-01 -9.6799604594707489e-02</leafValues></_>
    <_>
      <internalNodes>
        0 -1 61842 4.8703228821977973e-04</internalNodes>
      <leafValues>
        7.1199543774127960e-02 -1.5229247510433197e-01</leafValues></_>
    <_>
      <internalNodes>
        0 -1 37373 -1.2574060820043087e-03</internalNodes>
      <leafValues>
        1.0421932488679886e-01 -9.5922492444515228e-02</leafValues></_>
    <_>
      <internalNodes>
        0 -1 56411 2.2115219384431839e-02</internalNodes>
      <leafValues>
        -2.9392901808023453e-02 3.7075009942054749e-01</leafValues></_>
    <_>
      <internalNodes>
        0 -1 61817 -8.5473703220486641e-03</internalNodes>
      <leafValues>
        5.5146235227584839e-01 -1.8712807446718216e-02</leafValues></_>
    <_>
      <internalNodes>
        0 -1 34169 3.0544289620593190e-04</internalNodes>
      <leafValues>
        -1.2395330518484116e-01 8.6445890367031097e-02</leafValues></_>
    <_>
      <internalNodes>
        0 -1 63934 7.7591538429260254e-02</internalNodes>
      <leafValues>
        -2.0418478175997734e-02 5.4680740833282471e-01</leafValues></_>
    <_>
      <internalNodes>
        0 -1 61628 4.5239657629281282e-04</internalNodes>
      <leafValues>
        7.0143237709999084e-02 -1.6501368582248688e-01</leafValues></_>
    <_>
      <internalNodes>
        0 -1 21063 -3.8596856757067144e-04</internalNodes>
      <leafValues>
        1.0918026417493820e-01 -1.0203737765550613e-01</leafValues></_>
    <_>
      <internalNodes>
        0 -1 6835 -3.5325139760971069e-03</internalNodes>
      <leafValues>
        -2.0778878033161163e-01 5.8233898133039474e-02</leafValues></_>
    <_>
      <internalNodes>
        0 -1 58380 1.0087253525853157e-02</internalNodes>
      <leafValues>
        -2.3951359093189240e-02 4.8784726858139038e-01</leafValues></_>
    <_>
      <internalNodes>
        0 -1 54581 3.7996429018676281e-03</internalNodes>
      <leafValues>
        3.0827166512608528e-02 -3.6485821008682251e-01</leafValues></_>
    <_>
      <internalNodes>
        0 -1 55255 -2.1710762381553650e-01</internalNodes>
      <leafValues>
        -1. 9.3476800248026848e-03</leafValues></_>
    <_>
      <internalNodes>
        0 -1 36955 -2.4280233681201935e-01</internalNodes>
      <leafValues>
        -7.9908490180969238e-01 8.4701534360647202e-03</leafValues></_>
    <_>
      <internalNodes>
        0 -1 78279 1.5683595556765795e-03</internalNodes>
      <leafValues>
        5.3315684199333191e-02 -1.8745540082454681e-01</leafValues></_>
    <_>
      <internalNodes>
        0 -1 40430 -6.7780492827296257e-03</internalNodes>
      <leafValues>
        1.5759988129138947e-01 -6.2944807112216949e-02</leafValues></_>
    <_>
      <internalNodes>
        0 -1 51296 -2.1896881517022848e-03</internalNodes>
      <leafValues>
        1.1824233829975128e-01 -9.7034238278865814e-02</leafValues></_>
    <_>
      <internalNodes>
        0 -1 49265 -1.5030102804303169e-03</internalNodes>
      <leafValues>
        1.0010481625795364e-01 -1.2147320061922073e-01</leafValues></_>
    <_>
      <internalNodes>
        0 -1 1780 -2.5446987152099609e-01</internalNodes>
      <leafValues>
        -4.7218134999275208e-01 2.3289509117603302e-02</leafValues></_>
    <_>
      <internalNodes>
        0 -1 73857 -2.5249777827411890e-03</internalNodes>
      <leafValues>
        -2.3075869679450989e-01 4.5668225735425949e-02</leafValues></_>
    <_>
      <internalNodes>
        0 -1 45668 -4.9318298697471619e-03</internalNodes>
      <leafValues>
        1.4548172056674957e-01 -6.9096922874450684e-02</leafValues></_>
    <_>
      <internalNodes>
        0 -1 56396 -3.0874297954142094e-03</internalNodes>
      <leafValues>
        1.1474137008190155e-01 -8.0984100699424744e-02</leafValues></_></weakClassifiers></stage13>
</opencv_storage>
